{"learner":{"attributes":{"scikit_learn":"{\"_estimator_type\": \"regressor\"}"},"feature_names":[],"feature_types":[],"gradient_booster":{"model":{"gbtree_model_param":{"num_parallel_tree":"1","num_trees":"100"},"iteration_indptr":[0,1,2,3,4,5,6,7,8,9,10,11,12,13,14,15,16,17,18,19,20,21,22,23,24,25,26,27,28,29,30,31,32,33,34,35,36,37,38,39,40,41,42,43,44,45,46,47,48,49,50,51,52,53,54,55,56,57,58,59,60,61,62,63,64,65,66,67,68,69,70,71,72,73,74,75,76,77,78,79,80,81,82,83,84,85,86,87,88,89,90,91,92,93,94,95,96,97,98,99,100],"tree_info":[0,0,0,0,0,0,0,0,0,0,0,0,0,0,0,0,0,0,0,0,0,0,0,0,0,0,0,0,0,0,0,0,0,0,0,0,0,0,0,0,0,0,0,0,0,0,0,0,0,0,0,0,0,0,0,0,0,0,0,0,0,0,0,0,0,0,0,0,0,0,0,0,0,0,0,0,0,0,0,0,0,0,0,0,0,0,0,0,0,0,0,0,0,0,0,0,0,0,0,0],"trees":[{"base_weights":[-0E0,7.1545086E0,-3.8713585E1,1.2307917E1,-2.0288416E1,-1.7800312E1,-5.5567875E1,1.6020485E1,-1.1525747E1,1.8373573E1,-3.7228386E1,4.200528E0,-4.6511417E1,-4.5682816E1,-6.2569935E1,2.237201E1,4.2934494E0,2.3273811E1,-2.6505568E1,2.3957825E1,-2.4651134E1,-2.3153479E1,-5.448315E1,2.395266E1,-3.1256223E0,-3.4316677E1,-5.8382458E1,-3.797801E1,-6.612235E1,-5.855461E1,-6.848694E1,2.4305747E0,-8.772314E-1,1.0942482E0,-3.6421819E0,2.623899E0,-2.072649E0,-1.6576246E0,-5.1474395E0,2.961107E0,8.1105375E-1,-1.7005532E0,-4.694626E0,-1.2244327E0,-4.7933984E0,-3.2463644E0,-5.794755E0,2.634111E0,-7.632309E-1,-1.5616003E0,1.7052752E0,-3.8190143E0,-1.0784736E0,-5.2090764E0,-6.460421E0,-3.2505608E0,-4.477976E0,-6.6780953E0,-2.9465816E0,-5.077423E0,-6.4335337E0,-6.2647624E0,-7.359407E0],"categories":[],"categories_nodes":[],"categories_segments":[],"categories_sizes":[],"default_left":[0,0,0,0,0,0,0,0,0,0,0,0,0,0,0,0,0,0,0,0,0,0,0,0,0,0,0,0,0,0,0,0,0,0,0,0,0,0,0,0,0,0,0,0,0,0,0,0,0,0,0,0,0,0,0,0,0,0,0,0,0,0,0],"id":0,"left_children":[1,3,5,7,9,11,13,15,17,19,21,23,25,27,29,31,33,35,37,39,41,43,45,47,49,51,53,55,57,59,61,-1,-1,-1,-1,-1,-1,-1,-1,-1,-1,-1,-1,-1,-1,-1,-1,-1,-1,-1,-1,-1,-1,-1,-1,-1,-1,-1,-1,-1,-1,-1,-1],"loss_changes":[1.2730125E7,5.486313E6,2.525195E6,2.89012E6,4.0175765E6,2.022589E6,2.70777E5,2.104497E6,2.2953728E6,4.4963125E5,1.033756E6,2.6263706E5,1.9814725E5,2.5629425E5,4.9839E4,1.10429E6,2.6883648E6,1.7347012E5,7.615745E5,1.4765175E5,3.521096E4,6.3436725E5,1.432995E5,3.742872E4,3.33695E5,6.1809688E4,2.294775E4,4.2475E4,7.93375E3,5.80995E4,2.17915E4,0E0,0E0,0E0,0E0,0E0,0E0,0E0,0E0,0E0,0E0,0E0,0E0,0E0,0E0,0E0,0E0,0E0,0E0,0E0,0E0,0E0,0E0,0E0,0E0,0E0,0E0,0E0,0E0,0E0,0E0,0E0,0E0],"parents":[2147483647,0,0,1,1,2,2,3,3,4,4,5,5,6,6,7,7,8,8,9,9,10,10,11,11,12,12,13,13,14,14,15,15,16,16,17,17,18,18,19,19,20,20,21,21,22,22,23,23,24,24,25,25,26,26,27,27,28,28,29,29,30,30],"right_children":[2,4,6,8,10,12,14,16,18,20,22,24,26,28,30,32,34,36,38,40,42,44,46,48,50,52,54,56,58,60,62,-1,-1,-1,-1,-1,-1,-1,-1,-1,-1,-1,-1,-1,-1,-1,-1,-1,-1,-1,-1,-1,-1,-1,-1,-1,-1,-1,-1,-1,-1,-1,-1],"split_conditions":[9.93827E-1,9.936892E-1,1.8900816E-1,9.9366164E-1,4.7882736E-1,9.9437815E-1,9.939923E-1,3.755126E-1,4.771987E-1,9.94323E-1,9.938545E-1,1.2918617E-1,9.950395E-1,6.654739E-1,4.7365886E-1,9.2508143E-1,4.9185666E-1,9.942955E-1,9.938545E-1,1.842371E-1,9.9498445E-1,6.6290486E-1,4.8941368E-1,9.071661E-1,1.36487E-1,1.3679138E-1,9.9581116E-1,9.9390966E-1,9.9253017E-1,9.9437815E-1,9.941026E-1,2.4305747E0,-8.772314E-1,1.0942482E0,-3.6421819E0,2.623899E0,-2.072649E0,-1.6576246E0,-5.1474395E0,2.961107E0,8.1105375E-1,-1.7005532E0,-4.694626E0,-1.2244327E0,-4.7933984E0,-3.2463644E0,-5.794755E0,2.634111E0,-7.632309E-1,-1.5616003E0,1.7052752E0,-3.8190143E0,-1.0784736E0,-5.2090764E0,-6.460421E0,-3.2505608E0,-4.477976E0,-6.6780953E0,-2.9465816E0,-5.077423E0,-6.4335337E0,-6.2647624E0,-7.359407E0],"split_indices":[387,296,380,283,294,387,387,284,281,296,296,380,387,380,386,281,281,283,283,289,296,289,294,190,386,386,387,387,253,387,387,0,0,0,0,0,0,0,0,0,0,0,0,0,0,0,0,0,0,0,0,0,0,0,0,0,0,0,0,0,0,0,0],"split_type":[0,0,0,0,0,0,0,0,0,0,0,0,0,0,0,0,0,0,0,0,0,0,0,0,0,0,0,0,0,0,0,0,0,0,0,0,0,0,0,0,0,0,0,0,0,0,0,0,0,0,0,0,0,0,0,0,0,0,0,0,0,0,0],"sum_hessian":[4.5959E4,3.8791E4,7.168E3,3.2659E4,6.132E3,3.2E3,3.968E3,2.8258E4,4.401E3,1.868E3,4.264E3,1.812E3,1.388E3,1.649E3,2.319E3,1.8329E4,9.929E3,1.324E3,3.077E3,1.654E3,2.14E2,2.35E3,1.914E3,4.9E2,1.322E3,6.87E2,7.01E2,1.2E3,4.49E2,1.389E3,9.3E2,1.7258E4,1.071E3,8.536E3,1.393E3,1.241E3,8.3E1,2.203E3,8.74E2,1.218E3,4.36E2,1.61E2,5.3E1,1.633E3,7.17E2,2.62E2,1.652E3,4.56E2,3.4E1,8.17E2,5.05E2,5.89E2,9.8E1,3.54E2,3.47E2,6.69E2,5.31E2,4.4E2,9E0,5.97E2,7.92E2,4.41E2,4.89E2],"tree_param":{"num_deleted":"0","num_feature":"390","num_nodes":"63","size_leaf_vector":"1"}},{"base_weights":[-1.9567488E-3,6.2674637E0,-3.4073967E1,1.1555122E1,-1.7452494E1,-1.710479E1,-4.037802E1,1.5039941E1,-1.0915862E1,1.7533281E1,-3.1329336E1,-3.6104073E1,5.509163E0,-4.32896E1,7.3566875E0,2.1275328E1,3.7272391E0,2.319273E1,-2.3396189E1,2.2536047E1,-1.694668E1,-1.9636856E1,-4.9171097E1,-9.84435E0,-5.4483513E1,1.2923167E1,-2.2752468E1,-5.2629833E1,-3.409754E1,2.2731264E1,-9.839893E0,2.306657E0,-7.815451E-1,1.0206523E0,-3.5419557E0,2.4852707E0,-2.174601E0,-1.4017614E0,-4.5031943E0,3.0888975E0,1.3924003E0,-2.1727291E-1,-2.8432763E0,-4.971036E-1,-3.2006822E0,-2.7976491E0,-5.352235E0,1.0180093E0,-2.432905E0,-4.427006E0,-6.1256127E0,2.6312082E0,1.8047309E-1,-1.5127357E0,-3.4002607E0,-3.8726697E0,-5.902959E0,-6.562223E-1,-5.1334662E0,2.551573E0,-1.6142968E0,-2.0472108E-1,-2.8107061E0],"categories":[],"categories_nodes":[],"categories_segments":[],"categories_sizes":[],"default_left":[0,0,0,0,0,0,0,0,0,0,0,0,0,0,0,0,0,0,0,0,0,0,0,0,0,0,0,0,0,0,0,0,0,0,0,0,0,0,0,0,0,0,0,0,0,0,0,0,0,0,0,0,0,0,0,0,0,0,0,0,0,0,0],"id":1,"left_children":[1,3,5,7,9,11,13,15,17,19,21,23,25,27,29,31,33,35,37,39,41,43,45,47,49,51,53,55,57,59,61,-1,-1,-1,-1,-1,-1,-1,-1,-1,-1,-1,-1,-1,-1,-1,-1,-1,-1,-1,-1,-1,-1,-1,-1,-1,-1,-1,-1,-1,-1,-1,-1],"loss_changes":[9.818088E6,4.868814E6,7.62855E5,2.485914E6,3.436029E6,8.327347E5,7.24364E5,1.938225E6,1.8148199E6,3.4715306E5,1.0553955E6,5.0703912E5,1.8563144E5,4.18719E5,7.966963E4,9.234905E5,2.4774422E6,8.5761625E4,6.3206825E5,1.2544094E5,4.290435E4,5.5514725E5,1.82595E5,1.2656006E5,3.905025E4,1.0417375E5,1.47785E4,2.131275E5,1.1747415E6,1.7716406E4,1.9854648E4,0E0,0E0,0E0,0E0,0E0,0E0,0E0,0E0,0E0,0E0,0E0,0E0,0E0,0E0,0E0,0E0,0E0,0E0,0E0,0E0,0E0,0E0,0E0,0E0,0E0,0E0,0E0,0E0,0E0,0E0,0E0,0E0],"parents":[2147483647,0,0,1,1,2,2,3,3,4,4,5,5,6,6,7,7,8,8,9,9,10,10,11,11,12,12,13,13,14,14,15,15,16,16,17,17,18,18,19,19,20,20,21,21,22,22,23,23,24,24,25,25,26,26,27,27,28,28,29,29,30,30],"right_children":[2,4,6,8,10,12,14,16,18,20,22,24,26,28,30,32,34,36,38,40,42,44,46,48,50,52,54,56,58,60,62,-1,-1,-1,-1,-1,-1,-1,-1,-1,-1,-1,-1,-1,-1,-1,-1,-1,-1,-1,-1,-1,-1,-1,-1,-1,-1,-1,-1,-1,-1,-1,-1],"split_conditions":[9.9379945E-1,9.9366164E-1,2.578347E-1,9.9366164E-1,2.579791E-1,8.313539E-1,9.949017E-1,3.7540275E-1,4.7394136E-1,9.9426794E-1,9.938545E-1,7.3171906E-2,9.942955E-1,4.7023463E-1,9.19198E-1,9.2508143E-1,4.9185666E-1,9.9448836E-1,9.938545E-1,2.4170798E-1,9.9448836E-1,8.535535E-1,2.693641E-1,6.0655657E-2,6.25E-2,2.4250229E-1,9.9473643E-1,2.7321523E-1,6.973957E-1,9.9451596E-1,9.944333E-1,2.306657E0,-7.815451E-1,1.0206523E0,-3.5419557E0,2.4852707E0,-2.174601E0,-1.4017614E0,-4.5031943E0,3.0888975E0,1.3924003E0,-2.1727291E-1,-2.8432763E0,-4.971036E-1,-3.2006822E0,-2.7976491E0,-5.352235E0,1.0180093E0,-2.432905E0,-4.427006E0,-6.1256127E0,2.6312082E0,1.8047309E-1,-1.5127357E0,-3.4002607E0,-3.8726697E0,-5.902959E0,-6.562223E-1,-5.1334662E0,2.551573E0,-1.6142968E0,-2.0472108E-1,-2.8107061E0],"split_indices":[322,309,369,296,304,365,373,297,294,309,309,369,322,373,369,294,294,296,296,304,309,306,304,369,376,369,322,369,369,322,322,0,0,0,0,0,0,0,0,0,0,0,0,0,0,0,0,0,0,0,0,0,0,0,0,0,0,0,0,0,0,0,0],"split_type":[0,0,0,0,0,0,0,0,0,0,0,0,0,0,0,0,0,0,0,0,0,0,0,0,0,0,0,0,0,0,0,0,0,0,0,0,0,0,0,0,0,0,0,0,0,0,0,0,0,0,0,0,0,0,0,0,0,0,0,0,0,0,0],"sum_hessian":[4.5959E4,3.8817E4,7.142E3,3.1742E4,7.075E3,1.936E3,5.206E3,2.7481E4,4.261E3,2.009E3,5.066E3,1.052E3,8.84E2,4.907E3,2.99E2,1.7715E4,9.766E3,1.141E3,3.12E3,1.755E3,2.54E2,3.062E3,2.004E3,4.34E2,6.18E2,7.01E2,1.83E2,2.431E3,2.476E3,1.58E2,1.41E2,1.6688E4,1.027E3,8.38E3,1.386E3,1.101E3,4E1,2.178E3,9.42E2,8.89E2,8.66E2,1.12E2,1.42E2,1.402E3,1.66E3,3.43E2,1.661E3,1.82E2,2.52E2,2.5E2,3.68E2,3.17E2,3.84E2,1.11E2,7.2E1,7.69E2,1.662E3,9.54E2,1.522E3,1.48E2,1E1,1E2,4.1E1],"tree_param":{"num_deleted":"0","num_feature":"390","num_nodes":"63","size_leaf_vector":"1"}},{"base_weights":[-3.1035861E-3,6.3195114E0,-3.1613358E1,1.1054175E1,-1.528405E1,8.801712E0,-4.5349854E1,1.4092147E1,-9.6503935E0,-1.5967351E0,-3.477475E1,1.8620184E1,-2.0192272E1,-2.39677E1,-4.7962437E1,1.5040169E1,-3.3335987E1,2.0404734E1,-2.3334686E1,5.182479E0,-4.1650085E1,-2.0883642E1,-4.5660427E1,2.6135798E1,5.266611E0,-1.18501005E1,-3.6443466E1,-1.4837997E1,-3.5055885E1,-3.74897E1,-5.2957092E1,1.6897179E0,-2.9232523E-1,-5.154026E0,-1.441862E0,2.3085628E0,-1.8712507E0,-1.3498831E0,-4.257053E0,1.4967836E0,-8.184652E-1,-3.2388008E0,-5.302092E0,-6.0272616E-1,-3.1100843E0,-4.0304184E0,-5.5218754E0,3.4240193E0,2.267802E0,1.4779054E0,-5.0575E-1,-8.063963E-1,-2.4116635E0,-2.6123867E0,-4.224819E0,-7.594215E-1,-2.7934465E0,-2.695444E0,-4.0864697E0,-3.2574475E0,-5.866714E0,-5.0130053E0,-6.176689E0],"categories":[],"categories_nodes":[],"categories_segments":[],"categories_sizes":[],"default_left":[0,0,0,0,0,0,0,0,0,0,0,0,0,0,0,0,0,0,0,0,0,0,0,0,0,0,0,0,0,0,0,0,0,0,0,0,0,0,0,0,0,0,0,0,0,0,0,0,0,0,0,0,0,0,0,0,0,0,0,0,0,0,0],"id":2,"left_children":[1,3,5,7,9,11,13,15,17,19,21,23,25,27,29,31,33,35,37,39,41,43,45,47,49,51,53,55,57,59,61,-1,-1,-1,-1,-1,-1,-1,-1,-1,-1,-1,-1,-1,-1,-1,-1,-1,-1,-1,-1,-1,-1,-1,-1,-1,-1,-1,-1,-1,-1,-1,-1],"loss_changes":[9.185994E6,3.917665E6,4.253857E6,1.9762438E6,1.8363291E6,5.5377156E5,3.17554E5,1.2321665E6,1.6538636E6,1.099192E6,4.27829E5,1.4537178E5,6.57858E4,6.225078E4,2.63565E5,8.962255E5,1.8352769E5,1.3240116E5,5.21627E5,4.528966E5,5.9144625E4,1.8917956E5,7.827325E4,2.4687875E4,5.1730902E4,1.4670508E4,8.156375E3,3.2162023E4,1.1444125E4,1.68824E5,8.161E4,0E0,0E0,0E0,0E0,0E0,0E0,0E0,0E0,0E0,0E0,0E0,0E0,0E0,0E0,0E0,0E0,0E0,0E0,0E0,0E0,0E0,0E0,0E0,0E0,0E0,0E0,0E0,0E0,0E0,0E0,0E0,0E0],"parents":[2147483647,0,0,1,1,2,2,3,3,4,4,5,5,6,6,7,7,8,8,9,9,10,10,11,11,12,12,13,13,14,14,15,15,16,16,17,17,18,18,19,19,20,20,21,21,22,22,23,23,24,24,25,25,26,26,27,27,28,28,29,29,30,30],"right_children":[2,4,6,8,10,12,14,16,18,20,22,24,26,28,30,32,34,36,38,40,42,44,46,48,50,52,54,56,58,60,62,-1,-1,-1,-1,-1,-1,-1,-1,-1,-1,-1,-1,-1,-1,-1,-1,-1,-1,-1,-1,-1,-1,-1,-1,-1,-1,-1,-1,-1,-1,-1,-1],"split_conditions":[9.9379945E-1,9.9366164E-1,4.796417E-1,9.9366164E-1,6.390495E-1,9.943506E-1,2.6373178E-1,9.417754E-1,4.771987E-1,9.944057E-1,9.9377185E-1,2.4938622E-1,9.95012E-1,9.944333E-1,9.939372E-1,9.9366164E-1,9.923154E-1,9.943506E-1,9.93827E-1,1.8653087E-1,9.9526E-1,6.620791E-1,7.154002E-1,4.5439738E-1,4.6579805E-1,2.6486304E-1,9.9542534E-1,4.92671E-1,4.8859936E-1,7.265922E-1,7.8094465E-1,1.6897179E0,-2.9232523E-1,-5.154026E0,-1.441862E0,2.3085628E0,-1.8712507E0,-1.3498831E0,-4.257053E0,1.4967836E0,-8.184652E-1,-3.2388008E0,-5.302092E0,-6.0272616E-1,-3.1100843E0,-4.0304184E0,-5.5218754E0,3.4240193E0,2.267802E0,1.4779054E0,-5.0575E-1,-8.063963E-1,-2.4116635E0,-2.6123867E0,-4.224819E0,-7.594215E-1,-2.7934465E0,-2.695444E0,-4.0864697E0,-3.2574475E0,-5.866714E0,-5.0130053E0,-6.176689E0],"split_indices":[374,309,372,270,302,374,369,382,268,309,309,369,374,374,374,257,383,270,270,302,309,302,303,372,372,369,374,372,372,369,372,0,0,0,0,0,0,0,0,0,0,0,0,0,0,0,0,0,0,0,0,0,0,0,0,0,0,0,0,0,0,0,0],"split_type":[0,0,0,0,0,0,0,0,0,0,0,0,0,0,0,0,0,0,0,0,0,0,0,0,0,0,0,0,0,0,0,0,0,0,0,0,0,0,0,0,0,0,0,0,0,0,0,0,0,0,0,0,0,0,0,0,0,0,0,0,0,0,0],"sum_hessian":[4.5959E4,3.8299E4,7.66E3,3.1415E4,6.884E3,1.943E3,5.717E3,2.7396E4,4.019E3,4.045E3,2.839E3,1.452E3,4.91E2,6.24E2,5.093E3,2.686E4,5.36E2,1.257E3,2.762E3,3.46E3,5.85E2,1.249E3,1.59E3,9.28E2,5.24E2,3.26E2,1.65E2,3.44E2,2.8E2,1.648E3,3.445E3,2.4344E4,2.516E3,2.72E2,2.64E2,1.177E3,8E1,1.829E3,9.33E2,1.998E3,1.462E3,3.25E2,2.6E2,5.1E2,7.39E2,1.023E3,5.67E2,2.74E2,6.54E2,2.73E2,2.51E2,2.51E2,7.5E1,6.2E1,1.03E2,2.23E2,1.21E2,1.2E2,1.6E2,1.34E3,3.08E2,2.614E3,8.31E2],"tree_param":{"num_deleted":"0","num_feature":"390","num_nodes":"63","size_leaf_vector":"1"}},{"base_weights":[-4.6332595E-3,5.1998844E0,-2.6691174E1,7.4534187E0,-4.0615562E1,7.795574E0,-4.0059196E1,9.388246E0,-3.275452E1,-2.4957876E1,-5.1683804E1,1.6313206E1,-2.0510025E1,-3.140816E1,-4.543581E1,1.4754199E1,-8.562428E-1,-4.4414753E1,-1.9088392E1,-1.7980991E1,-3.7972164E1,-4.1469067E1,-5.683451E1,2.2784142E1,5.6301503E0,-1.289981E1,-3.6263218E1,-1.793749E1,-4.0449314E1,-3.1378376E1,-4.935146E1,1.9313034E0,2.8783026E-1,1.01521E0,-3.426852E0,-3.303845E0,-5.0135403E0,-1.4296483E0,-3.800813E0,7.181494E-1,-1.9659375E0,-3.3035378E0,-4.8939595E0,3.2840058E-1,-4.2012277E0,-1.5292358E-1,-5.6976867E0,2.527217E0,8.622414E-1,1.7254483E0,-9.632248E-1,-2.2541903E-1,-1.6214808E0,-2.7501037E0,-4.2882204E0,-1.4488226E0,-3.505727E0,-1.6927153E0,-4.5859766E0,-1.2170742E0,-3.7135377E0,-4.715102E0,-5.684434E0],"categories":[],"categories_nodes":[],"categories_segments":[],"categories_sizes":[],"default_left":[0,0,0,0,0,0,0,0,0,0,0,0,0,0,0,0,0,0,0,0,0,0,0,0,0,0,0,0,0,0,0,0,0,0,0,0,0,0,0,0,0,0,0,0,0,0,0,0,0,0,0,0,0,0,0,0,0,0,0,0,0,0,0],"id":3,"left_children":[1,3,5,7,9,11,13,15,17,19,21,23,25,27,29,31,33,35,37,39,41,43,45,47,49,51,53,55,57,59,61,-1,-1,-1,-1,-1,-1,-1,-1,-1,-1,-1,-1,-1,-1,-1,-1,-1,-1,-1,-1,-1,-1,-1,-1,-1,-1,-1,-1,-1,-1,-1,-1],"loss_changes":[6.383764E6,3.9708382E6,3.458743E6,2.8518978E6,3.10409E5,5.0563116E5,2.49256E5,1.922833E6,2.6670338E5,6.676625E4,5.2167E4,1.1102416E5,5.718489E4,2.5152738E5,1.80995E5,1.242458E6,4.4228145E6,5.6539375E4,6.937772E4,2.0959781E4,1.1640906E4,9.2283125E3,4.82325E3,3.4783625E4,1.0846569E5,1.1389246E4,7.2223438E3,4.836297E4,1.5653238E5,7.966656E4,3.91975E4,0E0,0E0,0E0,0E0,0E0,0E0,0E0,0E0,0E0,0E0,0E0,0E0,0E0,0E0,0E0,0E0,0E0,0E0,0E0,0E0,0E0,0E0,0E0,0E0,0E0,0E0,0E0,0E0,0E0,0E0,0E0,0E0],"parents":[2147483647,0,0,1,1,2,2,3,3,4,4,5,5,6,6,7,7,8,8,9,9,10,10,11,11,12,12,13,13,14,14,15,15,16,16,17,17,18,18,19,19,20,20,21,21,22,22,23,23,24,24,25,25,26,26,27,27,28,28,29,29,30,30],"right_children":[2,4,6,8,10,12,14,16,18,20,22,24,26,28,30,32,34,36,38,40,42,44,46,48,50,52,54,56,58,60,62,-1,-1,-1,-1,-1,-1,-1,-1,-1,-1,-1,-1,-1,-1,-1,-1,-1,-1,-1,-1,-1,-1,-1,-1,-1,-1,-1,-1,-1,-1,-1,-1],"split_conditions":[9.9377185E-1,9.528046E-1,4.7882736E-1,9.315961E-1,6.0260586E-2,9.94323E-1,9.939372E-1,3.7540275E-1,9.9365884E-1,1.6046619E-3,9.617384E-1,4.649837E-1,9.9498445E-1,8.535746E-1,4.92671E-1,9.9355143E-1,4.8941368E-1,9.413681E-1,9.9377185E-1,5.374593E-2,3.6376663E-3,4.641694E-2,4.641694E-2,6.512605E-1,6.281618E-1,3.6024457E-1,9.9545294E-1,3.8254246E-1,6.815961E-1,6.282674E-1,7.8013027E-1,1.9313034E0,2.8783026E-1,1.01521E0,-3.426852E0,-3.303845E0,-5.0135403E0,-1.4296483E0,-3.800813E0,7.181494E-1,-1.9659375E0,-3.3035378E0,-4.8939595E0,3.2840058E-1,-4.2012277E0,-1.5292358E-1,-5.6976867E0,2.527217E0,8.622414E-1,1.7254483E0,-9.632248E-1,-2.2541903E-1,-1.6214808E0,-2.7501037E0,-4.2882204E0,-1.4488226E0,-3.505727E0,-1.6927153E0,-4.5859766E0,-1.2170742E0,-3.7135377E0,-4.715102E0,-5.684434E0],"split_indices":[296,297,294,294,294,296,296,297,295,293,297,294,296,293,294,296,294,294,166,333,296,307,138,293,293,297,296,297,294,293,294,0,0,0,0,0,0,0,0,0,0,0,0,0,0,0,0,0,0,0,0,0,0,0,0,0,0,0,0,0,0,0,0],"split_type":[0,0,0,0,0,0,0,0,0,0,0,0,0,0,0,0,0,0,0,0,0,0,0,0,0,0,0,0,0,0,0,0,0,0,0,0,0,0,0,0,0,0,0,0,0,0,0,0,0,0,0,0,0,0,0,0,0,0,0,0,0,0,0],"sum_hessian":[4.5959E4,3.8459E4,7.5E3,3.6657E4,1.802E3,2.095E3,5.405E3,3.4975E4,1.682E3,7.48E2,1.054E3,1.611E3,4.84E2,2.075E3,3.33E3,2.2953E4,1.2022E4,9.06E2,7.76E2,4.89E2,2.59E2,3.57E2,6.97E2,1.002E3,6.09E2,3.28E2,1.56E2,8.35E2,1.24E3,7.28E2,2.602E3,1.6585E4,6.368E3,9.043E3,2.979E3,3.06E2,6E2,6.21E2,1.55E2,3E1,4.59E2,1.82E2,7.7E1,4E0,3.53E2,2E0,6.95E2,8.51E2,1.51E2,3.46E2,2.63E2,7.9E1,2.49E2,7E1,8.6E1,6.97E2,1.38E2,2.33E2,1.007E3,1.69E2,5.59E2,2.018E3,5.84E2],"tree_param":{"num_deleted":"0","num_feature":"390","num_nodes":"63","size_leaf_vector":"1"}},{"base_weights":[-5.894015E-3,5.62479E0,-2.5155642E1,9.013482E0,-2.0858482E1,1.0803597E1,-3.6500233E1,1.2092448E1,-9.507463E0,1.2545241E1,-3.5487972E1,1.9314936E1,-1.0766822E1,-3.3067703E1,-4.9581783E1,1.2813971E1,-2.8889599E1,4.6233573E0,-3.175381E1,1.8217237E1,-1.3828277E1,-2.5630068E1,-4.4549225E1,2.6878443E1,1.0609887E1,-2.3715696E0,-2.0620872E1,-2.321754E1,-3.833195E1,-3.9878395E1,-5.1856728E1,1.3519629E0,-2.4487062E0,-1.8486874E0,-4.6412883E0,7.375796E-1,-3.4226837E0,-1.9866705E0,-4.209001E0,2.4019413E0,5.622527E-1,-3.161272E-1,-2.30007E0,-1.2981629E0,-3.5351613E0,-2.257839E0,-4.929224E0,2.7524974E0,-1.2266879E0,1.8076912E-1,1.5694517E0,4.7123843E-1,-8.8504267E-1,-1.5274568E0,-2.602033E0,-1.8572054E0,-4.069272E0,-2.448006E0,-4.2197967E0,8.467808E-1,-4.052212E0,-5.3218036E0,-3.9886303E0],"categories":[],"categories_nodes":[],"categories_segments":[],"categories_sizes":[],"default_left":[0,0,0,0,0,0,0,0,0,0,0,0,0,0,0,0,0,0,0,0,0,0,0,0,0,0,0,0,0,0,0,0,0,0,0,0,0,0,0,0,0,0,0,0,0,0,0,0,0,0,0,0,0,0,0,0,0,0,0,0,0,0,0],"id":4,"left_children":[1,3,5,7,9,11,13,15,17,19,21,23,25,27,29,31,33,35,37,39,41,43,45,47,49,51,53,55,57,59,61,-1,-1,-1,-1,-1,-1,-1,-1,-1,-1,-1,-1,-1,-1,-1,-1,-1,-1,-1,-1,-1,-1,-1,-1,-1,-1,-1,-1,-1,-1,-1,-1],"loss_changes":[6.5087455E6,3.3702132E6,3.4306355E6,1.898743E6,2.0824488E6,3.7060075E5,2.84553E5,8.4438875E5,1.4923665E6,1.9446427E5,2.62826E5,9.461144E4,4.695843E4,2.612375E5,2.62855E4,7.38706E5,8.854422E4,3.1040978E5,2.25112E5,7.768753E4,2.2169398E4,1.7391031E5,1.588575E5,2.0053875E4,3.0006852E4,1.4310824E4,6.752797E3,1.4217912E5,1.750205E5,8.661969E3,1.438225E4,0E0,0E0,0E0,0E0,0E0,0E0,0E0,0E0,0E0,0E0,0E0,0E0,0E0,0E0,0E0,0E0,0E0,0E0,0E0,0E0,0E0,0E0,0E0,0E0,0E0,0E0,0E0,0E0,0E0,0E0,0E0,0E0],"parents":[2147483647,0,0,1,1,2,2,3,3,4,4,5,5,6,6,7,7,8,8,9,9,10,10,11,11,12,12,13,13,14,14,15,15,16,16,17,17,18,18,19,19,20,20,21,21,22,22,23,23,24,24,25,25,26,26,27,27,28,28,29,29,30,30],"right_children":[2,4,6,8,10,12,14,16,18,20,22,24,26,28,30,32,34,36,38,40,42,44,46,48,50,52,54,56,58,60,62,-1,-1,-1,-1,-1,-1,-1,-1,-1,-1,-1,-1,-1,-1,-1,-1,-1,-1,-1,-1,-1,-1,-1,-1,-1,-1,-1,-1,-1,-1,-1,-1],"split_conditions":[9.9377185E-1,9.9377185E-1,2.5809947E-1,9.9366164E-1,2.5877342E-1,9.9424034E-1,7.1951574E-1,9.995355E-1,8.535535E-1,9.94323E-1,8.5361683E-1,2.4315217E-1,9.9462616E-1,9.939372E-1,8.537013E-1,9.534637E-1,9.9961996E-1,9.944608E-1,9.9377185E-1,2.4767727E-1,9.946813E-1,9.9390966E-1,5.651808E-1,9.993244E-1,4.4388077E-3,9.936341E-1,9.950395E-1,6.630884E-1,2.7049536E-1,8.534268E-1,9.9236524E-1,1.3519629E0,-2.4487062E0,-1.8486874E0,-4.6412883E0,7.375796E-1,-3.4226837E0,-1.9866705E0,-4.209001E0,2.4019413E0,5.622527E-1,-3.161272E-1,-2.30007E0,-1.2981629E0,-3.5351613E0,-2.257839E0,-4.929224E0,2.7524974E0,-1.2266879E0,1.8076912E-1,1.5694517E0,4.7123843E-1,-8.8504267E-1,-1.5274568E0,-2.602033E0,-1.8572054E0,-4.069272E0,-2.448006E0,-4.2197967E0,8.467808E-1,-4.052212E0,-5.3218036E0,-3.9886303E0],"split_indices":[387,348,382,335,343,387,382,371,332,348,345,382,387,387,384,323,371,335,335,343,348,348,343,332,386,348,387,380,382,384,386,0,0,0,0,0,0,0,0,0,0,0,0,0,0,0,0,0,0,0,0,0,0,0,0,0,0,0,0,0,0,0,0],"split_type":[0,0,0,0,0,0,0,0,0,0,0,0,0,0,0,0,0,0,0,0,0,0,0,0,0,0,0,0,0,0,0,0,0,0,0,0,0,0,0,0,0,0,0,0,0,0,0,0,0,0,0,0,0,0,0,0,0,0,0,0,0,0,0],"sum_hessian":[4.5959E4,3.7552E4,8.407E3,3.3293E4,4.259E3,2.016E3,6.391E3,2.8548E4,4.745E3,1.297E3,2.962E3,1.446E3,5.7E2,5.066E3,1.325E3,2.8055E4,4.93E2,2.902E3,1.843E3,1.068E3,2.29E2,1.421E3,1.541E3,7.72E2,6.74E2,3.09E2,2.61E2,1.767E3,3.299E3,2.56E2,1.069E3,2.7535E4,5.2E2,3.11E2,1.82E2,2.711E3,1.91E2,8.59E2,9.84E2,7.3E2,3.38E2,1.07E2,1.22E2,6.19E2,8.02E2,2.75E2,1.266E3,7.6E2,1.2E1,2.48E2,4.26E2,1.47E2,1.62E2,1.34E2,1.27E2,1.398E3,3.69E2,7.22E2,2.577E3,3E0,2.53E2,9.56E2,1.13E2],"tree_param":{"num_deleted":"0","num_feature":"390","num_nodes":"63","size_leaf_vector":"1"}},{"base_weights":[-6.7713754E-3,6.1353884E0,-1.8661257E1,8.57255E0,-3.3985966E1,-2.1725087E0,-2.7728971E1,1.3949881E1,-1.1547121E0,-2.2407011E1,-4.3585484E1,1.2351415E1,-2.7080101E1,-1.790436E1,-3.780885E1,1.6754772E1,-1.292762E1,9.989307E0,-2.6415514E1,-1.2545358E1,-2.7349607E1,-3.7723682E1,-4.9326786E1,1.8684454E1,-1.5807938E1,-6.899192E0,-3.4836376E1,-1.3434633E1,-3.90323E1,-3.074661E1,-4.212364E1,2.1170375E0,1.0505937E0,-3.214238E0,-1.4637406E-1,1.7669861E0,4.5986387E-1,-1.7381241E0,-4.498141E0,-8.481823E-1,-2.465208E0,-2.4323206E0,-3.4891453E0,-3.2938874E0,-4.28641E0,1.6782887E-2,-4.9528933E0,2.1829906E0,1.0679148E0,-9.53145E-1,-3.3697908E0,1.3451366E-1,-2.0109499E0,-3.0098395E0,-4.254478E0,-8.437008E-1,-2.906102E0,-4.663711E0,-2.4741666E0,-2.2157073E0,-4.1944036E0,-3.6714451E0,-4.6327095E0],"categories":[],"categories_nodes":[],"categories_segments":[],"categories_sizes":[],"default_left":[0,0,0,0,0,0,0,0,0,0,0,0,0,0,0,0,0,0,0,0,0,0,0,0,0,0,0,0,0,0,0,0,0,0,0,0,0,0,0,0,0,0,0,0,0,0,0,0,0,0,0,0,0,0,0,0,0,0,0,0,0,0,0],"id":5,"left_children":[1,3,5,7,9,11,13,15,17,19,21,23,25,27,29,31,33,35,37,39,41,43,45,47,49,51,53,55,57,59,61,-1,-1,-1,-1,-1,-1,-1,-1,-1,-1,-1,-1,-1,-1,-1,-1,-1,-1,-1,-1,-1,-1,-1,-1,-1,-1,-1,-1,-1,-1,-1,-1],"loss_changes":[5.2662825E6,3.380955E6,1.7018715E6,1.7051855E6,2.1844525E5,1.4623375E6,7.261485E5,1.582886E6,3.2673152E6,4.3125938E4,3.3649E4,4.5561147E5,2.324135E5,3.50442E5,1.08407E5,5.23992E5,4.366438E5,3.33117E5,5.9453725E5,1.4365984E4,1.22083125E4,1.1111875E4,5.92475E3,5.1942688E4,5.1908727E4,4.5412387E4,3.72545E4,2.3944331E5,6.8664125E4,1.31062875E5,4.85365E4,0E0,0E0,0E0,0E0,0E0,0E0,0E0,0E0,0E0,0E0,0E0,0E0,0E0,0E0,0E0,0E0,0E0,0E0,0E0,0E0,0E0,0E0,0E0,0E0,0E0,0E0,0E0,0E0,0E0,0E0,0E0,0E0],"parents":[2147483647,0,0,1,1,2,2,3,3,4,4,5,5,6,6,7,7,8,8,9,9,10,10,11,11,12,12,13,13,14,14,15,15,16,16,17,17,18,18,19,19,20,20,21,21,22,22,23,23,24,24,25,25,26,26,27,27,28,28,29,29,30,30],"right_children":[2,4,6,8,10,12,14,16,18,20,22,24,26,28,30,32,34,36,38,40,42,44,46,48,50,52,54,56,58,60,62,-1,-1,-1,-1,-1,-1,-1,-1,-1,-1,-1,-1,-1,-1,-1,-1,-1,-1,-1,-1,-1,-1,-1,-1,-1,-1,-1,-1,-1,-1,-1,-1],"split_conditions":[9.9366164E-1,9.525483E-1,3.3333334E-1,3.755492E-1,9.6126246E-1,3.7719685E-1,9.938545E-1,9.479167E-1,3.0208334E-1,5.2083332E-2,9.6917105E-1,9.94323E-1,3.0208334E-1,9.479167E-1,6.666667E-1,9.9344116E-1,9.9386173E-1,5.2083332E-2,3.9455184E-1,9.936892E-1,3.9067078E-1,6.25E-2,4.3057997E-2,9.939923E-1,9.953427E-1,9.9413013E-1,9.949293E-1,3.367018E-1,9.931262E-1,3.7364528E-1,9.939923E-1,2.1170375E0,1.0505937E0,-3.214238E0,-1.4637406E-1,1.7669861E0,4.5986387E-1,-1.7381241E0,-4.498141E0,-8.481823E-1,-2.465208E0,-2.4323206E0,-3.4891453E0,-3.2938874E0,-4.28641E0,1.6782887E-2,-4.9528933E0,2.1829906E0,1.0679148E0,-9.53145E-1,-3.3697908E0,1.3451366E-1,-2.0109499E0,-3.0098395E0,-4.254478E0,-8.437008E-1,-2.906102E0,-4.663711E0,-2.4741666E0,-2.2157073E0,-4.1944036E0,-3.6714451E0,-4.6327095E0],"split_indices":[348,349,350,349,349,349,348,350,350,350,349,348,350,350,350,348,347,350,349,192,375,350,388,348,348,348,348,349,347,349,348,0,0,0,0,0,0,0,0,0,0,0,0,0,0,0,0,0,0,0,0,0,0,0,0,0,0,0,0,0,0,0,0],"split_type":[0,0,0,0,0,0,0,0,0,0,0,0,0,0,0,0,0,0,0,0,0,0,0,0,0,0,0,0,0,0,0,0,0,0,0,0,0,0,0,0,0,0,0,0,0,0,0,0,0,0,0,0,0,0,0,0,0,0,0,0,0,0,0],"sum_hessian":[4.5959E4,3.4575E4,1.1384E4,3.2596E4,1.979E3,4.04E3,7.344E3,2.0992E4,1.1604E4,8.99E2,1.08E3,2.552E3,1.488E3,3.721E3,3.623E3,1.9009E4,1.983E3,8.052E3,3.552E3,3.02E2,5.97E2,5.39E2,5.41E2,2.084E3,4.68E2,4.14E2,1.074E3,3.073E3,6.48E2,1.378E3,2.245E3,1.1136E4,7.873E3,7.4E2,1.243E3,3.319E3,4.733E3,2.391E3,1.161E3,2.28E2,7.4E1,4.3E2,1.67E2,2.84E2,2.55E2,2E0,5.39E2,1.494E3,5.9E2,3.48E2,1.2E2,2.55E2,1.59E2,6.69E2,4.05E2,2.33E3,7.43E2,4.21E2,2.27E2,7.82E2,5.96E2,9.87E2,1.258E3],"tree_param":{"num_deleted":"0","num_feature":"390","num_nodes":"63","size_leaf_vector":"1"}},{"base_weights":[-7.7628293E-3,4.76441E0,-2.2148943E1,6.8023734E0,-3.2074635E1,8.625598E0,-3.241353E1,8.333431E0,-2.683077E1,-2.1459305E1,-4.0050568E1,1.5994124E1,-1.0282831E1,-2.9082561E1,-4.498223E1,1.348032E1,-1.2325413E0,-1.670776E1,-3.5103546E1,-1.821897E1,-3.224865E1,-3.203818E1,-4.474898E1,1.8747522E1,-4.94099E0,-3.265122E0,-1.9866219E1,-1.8129053E1,-3.196389E1,-3.706156E1,-4.81336E1,1.7746019E0,2.8127202E-1,9.4089377E-1,-3.090705E0,-3.2079646E-1,-2.0155551E0,-2.358075E0,-3.7700481E0,-1.4109893E0,-2.4392543E0,1.3501072E-1,-3.2832744E0,-3.2592064E-1,-3.2704518E0,-4.9716177E0,-4.2721143E0,2.3190043E0,1.0387435E0,1.2330987E0,-1.0737532E0,-6.4107287E-1,1.0375595E0,-1.6513977E0,-2.8004806E0,-1.0853089E0,-2.6444304E0,-2.0765836E0,-3.493763E0,-3.2809642E-1,-3.8159845E0,-4.044414E0,-4.905252E0],"categories":[],"categories_nodes":[],"categories_segments":[],"categories_sizes":[],"default_left":[0,0,0,0,0,0,0,0,0,0,0,0,0,0,0,0,0,0,0,0,0,0,0,0,0,0,0,0,0,0,0,0,0,0,0,0,0,0,0,0,0,0,0,0,0,0,0,0,0,0,0,0,0,0,0,0,0,0,0,0,0,0,0],"id":6,"left_children":[1,3,5,7,9,11,13,15,17,19,21,23,25,27,29,31,33,35,37,39,41,43,45,47,49,51,53,55,57,59,61,-1,-1,-1,-1,-1,-1,-1,-1,-1,-1,-1,-1,-1,-1,-1,-1,-1,-1,-1,-1,-1,-1,-1,-1,-1,-1,-1,-1,-1,-1,-1,-1],"loss_changes":[4.8564835E6,2.8386878E6,2.5750038E6,1.8450796E6,1.6633575E5,2.8430984E5,2.53836E5,1.6874715E6,1.2953825E5,2.8729594E4,4.0337875E4,8.4850125E4,3.817278E4,1.51515E5,2.926425E4,1.013728E6,3.7864E6,3.2469031E4,2.4143E4,1.5988109E4,4.1860156E3,7.62625E3,4.093375E3,4.7630906E4,1.7236605E4,1.4272432E4,5.6674297E3,6.04465E4,1.2612375E5,1.31505E4,3.55125E3,0E0,0E0,0E0,0E0,0E0,0E0,0E0,0E0,0E0,0E0,0E0,0E0,0E0,0E0,0E0,0E0,0E0,0E0,0E0,0E0,0E0,0E0,0E0,0E0,0E0,0E0,0E0,0E0,0E0,0E0,0E0,0E0],"parents":[2147483647,0,0,1,1,2,2,3,3,4,4,5,5,6,6,7,7,8,8,9,9,10,10,11,11,12,12,13,13,14,14,15,15,16,16,17,17,18,18,19,19,20,20,21,21,22,22,23,23,24,24,25,25,26,26,27,27,28,28,29,29,30,30],"right_children":[2,4,6,8,10,12,14,16,18,20,22,24,26,28,30,32,34,36,38,40,42,44,46,48,50,52,54,56,58,60,62,-1,-1,-1,-1,-1,-1,-1,-1,-1,-1,-1,-1,-1,-1,-1,-1,-1,-1,-1,-1,-1,-1,-1,-1,-1,-1,-1,-1,-1,-1,-1,-1],"split_conditions":[9.9377185E-1,9.529145E-1,2.5809947E-1,9.3879074E-1,7.757666E-2,9.9424034E-1,7.1814376E-1,3.7540275E-1,4.9062684E-2,9.640085E-1,9.640085E-1,3.7928385E-1,9.946813E-1,9.938545E-1,8.537224E-1,9.9355143E-1,2.6009724E-1,3.7126537E-2,9.4528955E-1,9.93579E-1,1.0276172E-2,6.1955422E-2,1.4605782E-3,2.4560727E-1,2.3987868E-1,9.94075E-1,9.9537027E-1,8.535746E-1,2.7039906E-1,8.535113E-1,5.320006E-2,1.7746019E0,2.8127202E-1,9.4089377E-1,-3.090705E0,-3.2079646E-1,-2.0155551E0,-2.358075E0,-3.7700481E0,-1.4109893E0,-2.4392543E0,1.3501072E-1,-3.2832744E0,-3.2592064E-1,-3.2704518E0,-4.9716177E0,-4.2721143E0,2.3190043E0,1.0387435E0,1.2330987E0,-1.0737532E0,-6.4107287E-1,1.0375595E0,-1.6513977E0,-2.8004806E0,-1.0853089E0,-2.6444304E0,-2.0765836E0,-3.493763E0,-3.2809642E-1,-3.8159845E0,-4.044414E0,-4.905252E0],"split_indices":[361,362,356,356,356,361,356,362,362,362,362,362,361,361,358,361,356,362,356,270,185,226,361,356,356,23,361,358,356,358,362,0,0,0,0,0,0,0,0,0,0,0,0,0,0,0,0,0,0,0,0,0,0,0,0,0,0,0,0,0,0,0,0],"split_type":[0,0,0,0,0,0,0,0,0,0,0,0,0,0,0,0,0,0,0,0,0,0,0,0,0,0,0,0,0,0,0,0,0,0,0,0,0,0,0,0,0,0,0,0,0,0,0,0,0,0,0,0,0,0,0,0,0,0,0,0,0,0,0],"sum_hessian":[4.5959E4,3.781E4,8.149E3,3.5829E4,1.981E3,2.038E3,6.111E3,3.427E4,1.559E3,8.52E2,1.129E3,1.467E3,5.71E2,4.834E3,1.277E3,2.2282E4,1.1988E4,7.03E2,8.56E2,6.58E2,1.94E2,4.21E2,7.08E2,1.297E3,1.7E2,3.31E2,2.4E2,1.009E3,3.825E3,3.68E2,9.09E2,1.5916E4,6.366E3,8.824E3,3.164E3,1.44E2,5.59E2,1.6E2,6.96E2,3.98E2,2.6E2,3E0,1.91E2,1E1,4.11E2,1.97E2,5.11E2,8.45E2,4.52E2,4.2E1,1.28E2,2.7E2,6.1E1,1.73E2,6.7E1,5.4E2,4.69E2,8.05E2,3.02E3,1.2E1,3.56E2,1.03E2,8.06E2],"tree_param":{"num_deleted":"0","num_feature":"390","num_nodes":"63","size_leaf_vector":"1"}},{"base_weights":[-8.431064E-3,5.174038E0,-1.7021402E1,1.1280825E1,-7.470789E0,1.3423877E1,-2.4937492E1,1.3506596E1,-1.952348E1,1.2155638E1,-2.0700527E1,1.7789276E1,-9.241872E0,-1.676712E1,-3.013539E1,2.2639603E1,1.150383E1,-1.1682712E1,-3.196004E1,2.1356674E1,1.8338902E0,-6.9658065E0,-2.9509712E1,2.1412615E1,8.019399E0,-3.9399788E0,-1.8893452E1,-9.437093E0,-3.3194042E1,-1.735471E1,-3.351104E1,2.6118453E0,1.5766459E0,1.6297706E0,2.3573668E-1,-2.0693655E0,-6.296467E-1,-2.6936898E0,-3.859988E0,2.5257277E0,1.5975211E0,6.180027E-1,-1.4763364E0,6.576084E-2,-2.9315133E0,-1.4081846E0,-3.4785144E0,2.3984077E0,1.450768E0,1.4718537E0,-3.593807E-1,-3.0080695E-2,-1.6105076E0,5.2931625E-1,-1.981181E0,-1.5956034E-1,-1.354825E0,-7.9679084E-1,-3.5463257E0,-1.107012E0,-2.611226E0,-3.126222E0,-4.125424E0],"categories":[],"categories_nodes":[],"categories_segments":[],"categories_sizes":[],"default_left":[0,0,0,0,0,0,0,0,0,0,0,0,0,0,0,0,0,0,0,0,0,0,0,0,0,0,0,0,0,0,0,0,0,0,0,0,0,0,0,0,0,0,0,0,0,0,0,0,0,0,0,0,0,0,0,0,0,0,0,0,0,0,0],"id":7,"left_children":[1,3,5,7,9,11,13,15,17,19,21,23,25,27,29,31,33,35,37,39,41,43,45,47,49,51,53,55,57,59,61,-1,-1,-1,-1,-1,-1,-1,-1,-1,-1,-1,-1,-1,-1,-1,-1,-1,-1,-1,-1,-1,-1,-1,-1,-1,-1,-1,-1,-1,-1,-1,-1],"loss_changes":[4.0524628E6,2.7204795E6,2.586944E6,1.6290625E6,2.97933E6,2.1941316E5,3.607745E5,4.04678E5,1.5530712E5,4.3849394E5,8.2870675E5,6.5306375E4,1.8016678E4,3.9841894E5,2.23426E5,9.4405375E4,7.966945E5,4.735839E4,1.8916938E4,5.0444E4,1.5718525E5,4.5691938E5,3.3881925E5,2.3308438E4,3.9452375E4,1.014621E4,3.048754E3,7.378E4,5.7785875E4,5.9330125E4,6.964E4,0E0,0E0,0E0,0E0,0E0,0E0,0E0,0E0,0E0,0E0,0E0,0E0,0E0,0E0,0E0,0E0,0E0,0E0,0E0,0E0,0E0,0E0,0E0,0E0,0E0,0E0,0E0,0E0,0E0,0E0,0E0,0E0],"parents":[2147483647,0,0,1,1,2,2,3,3,4,4,5,5,6,6,7,7,8,8,9,9,10,10,11,11,12,12,13,13,14,14,15,15,16,16,17,17,18,18,19,19,20,20,21,21,22,22,23,23,24,24,25,25,26,26,27,27,28,28,29,29,30,30],"right_children":[2,4,6,8,10,12,14,16,18,20,22,24,26,28,30,32,34,36,38,40,42,44,46,48,50,52,54,56,58,60,62,-1,-1,-1,-1,-1,-1,-1,-1,-1,-1,-1,-1,-1,-1,-1,-1,-1,-1,-1,-1,-1,-1,-1,-1,-1,-1,-1,-1,-1,-1,-1,-1],"split_conditions":[9.936892E-1,3.8250586E-1,4.7394136E-1,9.299674E-1,5.456026E-2,9.942955E-1,9.938545E-1,4.6824104E-1,9.4299674E-1,9.3896455E-1,3.9264792E-1,1.8414533E-1,9.9484664E-1,6.636389E-1,4.92671E-1,1.8359482E-1,3.2992825E-1,9.937857E-1,9.519544E-1,3.7459284E-2,9.533172E-1,1.3432425E-1,6.433225E-2,9.939923E-1,4.6254072E-1,1.8708138E-1,2.9840363E-2,1.2807557E-1,6.799674E-1,9.945986E-1,7.84202E-1,2.6118453E0,1.5766459E0,1.6297706E0,2.3573668E-1,-2.0693655E0,-6.296467E-1,-2.6936898E0,-3.859988E0,2.5257277E0,1.5975211E0,6.180027E-1,-1.4763364E0,6.576084E-2,-2.9315133E0,-1.4081846E0,-3.4785144E0,2.3984077E0,1.450768E0,1.4718537E0,-3.593807E-1,-3.0080695E-2,-1.6105076E0,5.2931625E-1,-1.981181E0,-1.5956034E-1,-1.354825E0,-7.9679084E-1,-3.5463257E0,-1.107012E0,-2.611226E0,-3.126222E0,-4.125424E0],"split_indices":[374,375,372,372,372,374,374,372,372,375,375,367,374,367,372,367,375,373,372,372,375,367,372,374,372,367,102,375,372,374,372,0,0,0,0,0,0,0,0,0,0,0,0,0,0,0,0,0,0,0,0,0,0,0,0,0,0,0,0,0,0,0,0],"split_type":[0,0,0,0,0,0,0,0,0,0,0,0,0,0,0,0,0,0,0,0,0,0,0,0,0,0,0,0,0,0,0,0,0,0,0,0,0,0,0,0,0,0,0,0,0,0,0,0,0,0,0,0,0,0,0,0,0,0,0,0,0,0,0],"sum_hessian":[4.5959E4,3.5228E4,1.0731E4,2.3756E4,1.1472E4,2.214E3,8.517E3,2.2156E4,1.6E3,4.619E3,6.853E3,1.857E3,3.57E2,3.314E3,5.203E3,3.982E3,1.8174E4,9.83E2,6.17E2,2.441E3,2.178E3,2.679E3,4.174E3,1.353E3,5.04E2,2.32E2,1.25E2,2.293E3,1.021E3,1.089E3,4.114E3,2.641E3,1.341E3,1.1923E4,6.251E3,3.66E2,6.17E2,3.55E2,2.62E2,1.412E3,1.029E3,1.727E3,4.51E2,1.998E3,6.81E2,1.065E3,3.109E3,9.83E2,3.7E2,3.2E2,1.84E2,1.8E2,5.2E1,4E0,1.21E2,7.9E2,1.503E3,8.5E1,9.36E2,6.36E2,4.53E2,3.193E3,9.21E2],"tree_param":{"num_deleted":"0","num_feature":"390","num_nodes":"63","size_leaf_vector":"1"}},{"base_weights":[-8.231692E-3,4.9469275E0,-1.45876875E1,7.790614E0,-1.0028516E1,-1.1781276E0,-2.170207E1,8.9376E0,-2.575853E1,-1.6372854E1,-1.2684289E0,7.899196E0,-2.0786366E1,-1.4398723E1,-2.8826643E1,1.2364109E1,2.0773795E0,-2.0685144E1,-3.5985306E1,1.4540203E0,-2.0072779E1,7.2881603E0,-2.1437786E1,1.890407E1,3.8166692E0,-1.3748976E1,-2.8747492E1,-6.223945E0,-2.6712711E1,-2.3293444E1,-3.2080757E1,1.7064389E0,6.9186825E-1,1.1862086E0,-5.1570565E-1,-1.097237E0,-2.4678574E0,1.2387955E0,-3.6523914E0,6.560673E-1,-1.4221365E0,-1.4366142E0,-3.1464756E0,1.8451084E0,2.0407878E-1,-1.4073857E0,-3.0085266E0,2.5502348E0,1.6240377E0,-4.7185722E-1,1.2659286E0,-1.5033898E0,4.5516768E-1,-2.5269961E0,-3.2306976E0,-8.516845E-2,-9.249713E-1,-2.3381174E0,-3.425045E0,-1.9147072E0,-3.3316033E0,-2.3903024E0,-3.445275E0],"categories":[],"categories_nodes":[],"categories_segments":[],"categories_sizes":[],"default_left":[0,0,0,0,0,0,0,0,0,0,0,0,0,0,0,0,0,0,0,0,0,0,0,0,0,0,0,0,0,0,0,0,0,0,0,0,0,0,0,0,0,0,0,0,0,0,0,0,0,0,0,0,0,0,0,0,0,0,0,0,0,0,0],"id":8,"left_children":[1,3,5,7,9,11,13,15,17,19,21,23,25,27,29,31,33,35,37,39,41,43,45,47,49,51,53,55,57,59,61,-1,-1,-1,-1,-1,-1,-1,-1,-1,-1,-1,-1,-1,-1,-1,-1,-1,-1,-1,-1,-1,-1,-1,-1,-1,-1,-1,-1,-1,-1,-1,-1],"loss_changes":[3.3204812E6,1.4608222E6,1.112023E6,1.1094138E6,3.0403112E5,7.1990794E5,3.9548975E5,6.5512375E5,4.813475E4,2.0956638E5,3.9740644E5,1.238808E5,7.089256E4,3.784042E5,6.80925E4,4.7545375E5,6.575963E5,2.4196531E4,8.874906E3,4.372331E4,1.7000062E5,9.441629E4,4.2819062E4,1.22975E4,1.524454E5,1.6210406E4,6.022375E3,3.6692906E4,3.6316375E4,5.8347625E4,4.559325E4,0E0,0E0,0E0,0E0,0E0,0E0,0E0,0E0,0E0,0E0,0E0,0E0,0E0,0E0,0E0,0E0,0E0,0E0,0E0,0E0,0E0,0E0,0E0,0E0,0E0,0E0,0E0,0E0,0E0,0E0,0E0,0E0],"parents":[2147483647,0,0,1,1,2,2,3,3,4,4,5,5,6,6,7,7,8,8,9,9,10,10,11,11,12,12,13,13,14,14,15,15,16,16,17,17,18,18,19,19,20,20,21,21,22,22,23,23,24,24,25,25,26,26,27,27,28,28,29,29,30,30],"right_children":[2,4,6,8,10,12,14,16,18,20,22,24,26,28,30,32,34,36,38,40,42,44,46,48,50,52,54,56,58,60,62,-1,-1,-1,-1,-1,-1,-1,-1,-1,-1,-1,-1,-1,-1,-1,-1,-1,-1,-1,-1,-1,-1,-1,-1,-1,-1,-1,-1,-1,-1,-1,-1],"split_conditions":[9.9366164E-1,9.9366164E-1,3.3333334E-1,9.52292E-1,3.75E-1,9.942955E-1,9.938545E-1,3.7536615E-1,9.630199E-1,5.2083332E-2,9.8385173E-1,2.9166666E-1,9.95012E-1,6.620791E-1,6.666667E-1,9.934136E-1,2.425111E-3,2.6069897E-1,4.2345278E-2,2.6455754E-3,9.938821E-1,9.933585E-1,9.583333E-1,1.2606661E-1,1.431324E-1,9.955866E-1,9.9575603E-1,2.5809947E-1,9.8752177E-1,9.95012E-1,6.4088446E-1,1.7064389E0,6.9186825E-1,1.1862086E0,-5.1570565E-1,-1.097237E0,-2.4678574E0,1.2387955E0,-3.6523914E0,6.560673E-1,-1.4221365E0,-1.4366142E0,-3.1464756E0,1.8451084E0,2.0407878E-1,-1.4073857E0,-3.0085266E0,2.5502348E0,1.6240377E0,-4.7185722E-1,1.2659286E0,-1.5033898E0,4.5516768E-1,-2.5269961E0,-3.2306976E0,-8.516845E-2,-9.249713E-1,-2.3381174E0,-3.425045E0,-1.9147072E0,-3.3316033E0,-2.3903024E0,-3.445275E0],"split_indices":[374,270,376,271,376,374,374,271,271,376,367,376,374,367,376,270,270,382,112,374,270,374,376,367,367,61,374,382,367,374,367,0,0,0,0,0,0,0,0,0,0,0,0,0,0,0,0,0,0,0,0,0,0,0,0,0,0,0,0,0,0,0,0],"split_type":[0,0,0,0,0,0,0,0,0,0,0,0,0,0,0,0,0,0,0,0,0,0,0,0,0,0,0,0,0,0,0,0,0,0,0,0,0,0,0,0,0,0,0,0,0,0,0,0,0,0,0,0,0,0,0,0,0,0,0,0,0,0,0],"sum_hessian":[4.5959E4,3.4301E4,1.1658E4,2.8828E4,5.473E3,4.042E3,7.616E3,2.7876E4,9.52E2,3.173E3,2.3E3,2.763E3,1.279E3,3.763E3,3.853E3,1.8589E4,9.287E3,6.39E2,3.13E2,5.45E2,2.628E3,1.615E3,6.85E2,7.46E2,2.017E3,6.81E2,5.98E2,2.263E3,1.5E3,1.431E3,2.422E3,9.975E3,8.614E3,3.948E3,5.339E3,1.88E2,4.51E2,3E0,3.1E2,4.12E2,1.33E2,1.753E3,8.75E2,5.15E2,1.1E3,3.72E2,3.13E2,2.11E2,5.35E2,1.026E3,9.91E2,6.37E2,4.4E1,3.08E2,2.9E2,8.17E2,1.446E3,1.044E3,4.56E2,1.015E3,4.16E2,5.48E2,1.874E3],"tree_param":{"num_deleted":"0","num_feature":"390","num_nodes":"63","size_leaf_vector":"1"}},{"base_weights":[-8.263898E-3,4.406864E0,-1.3844211E1,9.647232E0,-5.8694286E0,1.1836929E1,-2.1028812E1,1.1861231E1,-1.3381893E1,1.1905641E1,-1.5078511E1,1.5408621E1,-8.86007E0,-1.4879084E1,-2.6250196E1,1.9632332E1,1.0108725E1,-3.1545067E0,-2.2380415E1,1.8912512E1,3.7436876E0,-9.882912E0,-3.3383442E1,2.0223015E1,6.3514404E0,-3.76259E0,-1.8982216E1,-1.1772929E1,-3.372524E1,-1.3796758E1,-2.918765E1,2.345369E0,1.4276861E0,1.4845306E0,2.0068283E-1,2.4371515E-1,-8.575107E-1,-1.6068274E0,-2.925696E0,2.2499018E0,1.4544669E0,6.6625583E-1,-1.0644166E0,-3.510814E-1,-2.831672E0,-2.5075812E0,-3.863445E0,2.4960616E0,1.7694625E0,1.2047819E0,1.661154E-2,-5.2422434E-1,1.2275714E0,1.8515654E-1,-1.9623188E0,-7.0950264E-1,-1.9795592E0,-3.563683E0,-2.1589658E0,-9.564676E-1,-2.1467433E0,-2.7408607E0,-3.7926884E0],"categories":[],"categories_nodes":[],"categories_segments":[],"categories_sizes":[],"default_left":[0,0,0,0,0,0,0,0,0,0,0,0,0,0,0,0,0,0,0,0,0,0,0,0,0,0,0,0,0,0,0,0,0,0,0,0,0,0,0,0,0,0,0,0,0,0,0,0,0,0,0,0,0,0,0,0,0,0,0,0,0,0,0],"id":9,"left_children":[1,3,5,7,9,11,13,15,17,19,21,23,25,27,29,31,33,35,37,39,41,43,45,47,49,51,53,55,57,59,61,-1,-1,-1,-1,-1,-1,-1,-1,-1,-1,-1,-1,-1,-1,-1,-1,-1,-1,-1,-1,-1,-1,-1,-1,-1,-1,-1,-1,-1,-1,-1,-1],"loss_changes":[2.807736E6,1.8763905E6,2.0518938E6,1.1767068E6,1.926376E6,1.7990956E5,2.7820275E5,2.8622275E5,1.8594556E5,2.2937669E5,7.364921E5,9.004225E4,1.8173012E4,2.3289444E5,1.7099E5,7.8529E4,6.5916575E5,2.8846607E4,4.5781188E4,3.3139312E4,7.8018195E4,7.09053E5,7.3121E4,1.53386875E4,2.531477E4,5.6894897E3,1.803168E3,1.28316E5,1.1742125E4,2.8668516E4,5.7372E4,0E0,0E0,0E0,0E0,0E0,0E0,0E0,0E0,0E0,0E0,0E0,0E0,0E0,0E0,0E0,0E0,0E0,0E0,0E0,0E0,0E0,0E0,0E0,0E0,0E0,0E0,0E0,0E0,0E0,0E0,0E0,0E0],"parents":[2147483647,0,0,1,1,2,2,3,3,4,4,5,5,6,6,7,7,8,8,9,9,10,10,11,11,12,12,13,13,14,14,15,15,16,16,17,17,18,18,19,19,20,20,21,21,22,22,23,23,24,24,25,25,26,26,27,27,28,28,29,29,30,30],"right_children":[2,4,6,8,10,12,14,16,18,20,22,24,26,28,30,32,34,36,38,40,42,44,46,48,50,52,54,56,58,60,62,-1,-1,-1,-1,-1,-1,-1,-1,-1,-1,-1,-1,-1,-1,-1,-1,-1,-1,-1,-1,-1,-1,-1,-1,-1,-1,-1,-1,-1,-1,-1,-1],"split_conditions":[9.9366164E-1,3.8082162E-1,4.7394136E-1,9.242671E-1,4.967427E-2,9.942955E-1,9.938545E-1,2.4644972E-1,9.3592644E-1,9.3739015E-1,4.97557E-1,2.4770135E-1,9.948742E-1,9.415828E-1,2.659221E-1,4.6824104E-1,3.267062E-1,4.1117456E-2,9.405537E-1,3.5016287E-2,9.520357E-1,9.534637E-1,2.6842535E-1,4.5439738E-1,4.617264E-1,9.9515533E-1,3.7762426E-2,3.3018455E-1,9.937603E-1,9.945986E-1,7.232706E-1,2.345369E0,1.4276861E0,1.4845306E0,2.0068283E-1,2.4371515E-1,-8.575107E-1,-1.6068274E0,-2.925696E0,2.2499018E0,1.4544669E0,6.6625583E-1,-1.0644166E0,-3.510814E-1,-2.831672E0,-2.5075812E0,-3.863445E0,2.4960616E0,1.7694625E0,1.2047819E0,1.661154E-2,-5.2422434E-1,1.2275714E0,1.8515654E-1,-1.9623188E0,-7.0950264E-1,-1.9795592E0,-3.563683E0,-2.1589658E0,-9.564676E-1,-2.1467433E0,-2.7408607E0,-3.7926884E0],"split_indices":[322,323,320,320,320,322,322,317,317,323,320,317,322,317,317,320,323,323,320,320,323,323,317,320,320,360,134,323,321,322,317,0,0,0,0,0,0,0,0,0,0,0,0,0,0,0,0,0,0,0,0,0,0,0,0,0,0,0,0,0,0,0,0],"split_type":[0,0,0,0,0,0,0,0,0,0,0,0,0,0,0,0,0,0,0,0,0,0,0,0,0,0,0,0,0,0,0,0,0,0,0,0,0,0,0,0,0,0,0,0,0,0,0,0,0,0,0,0,0,0,0,0,0,0,0,0,0,0,0],"sum_hessian":[4.5959E4,3.4841E4,1.1118E4,2.3075E4,1.1766E4,2.43E3,8.688E3,2.1052E4,2.023E3,4.015E3,7.751E3,2.073E3,3.57E2,3.992E3,4.696E3,3.871E3,1.7181E4,9.48E2,1.075E3,2.159E3,1.856E3,6.039E3,1.712E3,1.352E3,7.21E2,2.39E2,1.18E2,3.429E3,5.63E2,8.98E2,3.798E3,2.256E3,1.615E3,1.0841E4,6.34E3,4.66E2,4.82E2,5.63E2,5.12E2,1.182E3,9.77E2,1.544E3,3.12E2,4.489E3,1.55E3,6.66E2,1.046E3,4.66E2,8.86E2,3.74E2,3.47E2,2.2E2,1.9E1,3E0,1.15E2,2.168E3,1.261E3,4.84E2,7.9E1,5.81E2,3.17E2,3.16E3,6.38E2],"tree_param":{"num_deleted":"0","num_feature":"390","num_nodes":"63","size_leaf_vector":"1"}},{"base_weights":[-7.92777E-3,2.699434E0,-1.6729612E1,4.0471935E0,-2.5501602E1,-8.293808E0,-2.4954214E1,4.9972696E0,-2.2400143E1,-1.9461163E1,-3.150938E1,3.9161346E0,-1.9435028E1,-2.021523E1,-2.7119135E1,1.4052066E1,4.7465602E-1,-1.2412434E1,-3.174799E1,-1.6919262E1,-2.5511753E1,-3.793479E1,-2.9120832E1,7.7966638E0,-1.062282E1,-1.1084333E1,-2.3968847E1,-1.6628632E1,-2.8366943E1,-3.0994719E1,-2.3117973E1,1.6323363E0,4.1282293E-1,6.792045E-1,-1.0246744E0,-7.8404284E-1,-1.691396E0,-2.387146E0,-3.5431163E0,1.2224638E0,-1.7654275E0,-3.5294697E-1,-2.9376762E0,1.0313337E0,-3.8425586E0,-2.943133E0,8.1171364E-1,1.9311196E0,5.1192915E-1,-6.5978754E-1,-2.2589452E0,-2.2373755E-1,-2.0353982E0,-2.14156E0,-2.8966196E0,-1.8386891E0,-6.2923145E-1,-0E0,-2.8539279E0,-2.680106E0,-3.4344404E0,-1.5376542E0,-2.6498218E0],"categories":[],"categories_nodes":[],"categories_segments":[],"categories_sizes":[],"default_left":[0,0,0,0,0,0,0,0,0,0,0,0,0,0,0,0,0,0,0,0,0,0,0,0,0,0,0,0,0,0,0,0,0,0,0,0,0,0,0,0,0,0,0,0,0,0,0,0,0,0,0,0,0,0,0,0,0,0,0,0,0,0,0],"id":10,"left_children":[1,3,5,7,9,11,13,15,17,19,21,23,25,27,29,31,33,35,37,39,41,43,45,47,49,51,53,55,57,59,61,-1,-1,-1,-1,-1,-1,-1,-1,-1,-1,-1,-1,-1,-1,-1,-1,-1,-1,-1,-1,-1,-1,-1,-1,-1,-1,-1,-1,-1,-1,-1,-1],"loss_changes":[2.0808706E6,1.5033419E6,4.4384688E5,9.485568E5,6.43435E4,4.3064178E5,3.2239625E4,1.4923198E6,1.2137725E5,1.30321875E4,1.2068125E4,8.524701E4,6.2043E4,2.8958469E4,3.3183E4,2.7334075E5,1.6463786E6,1.2688773E4,1.8143375E4,1.3979641E4,2.1997156E4,6.3606562E3,8.1178125E3,3.643546E4,1.4875566E4,4.7703336E4,1.25411875E4,1.25955E4,1.4111562E3,1.42575E4,2.790625E4,0E0,0E0,0E0,0E0,0E0,0E0,0E0,0E0,0E0,0E0,0E0,0E0,0E0,0E0,0E0,0E0,0E0,0E0,0E0,0E0,0E0,0E0,0E0,0E0,0E0,0E0,0E0,0E0,0E0,0E0,0E0,0E0],"parents":[2147483647,0,0,1,1,2,2,3,3,4,4,5,5,6,6,7,7,8,8,9,9,10,10,11,11,12,12,13,13,14,14,15,15,16,16,17,17,18,18,19,19,20,20,21,21,22,22,23,23,24,24,25,25,26,26,27,27,28,28,29,29,30,30],"right_children":[2,4,6,8,10,12,14,16,18,20,22,24,26,28,30,32,34,36,38,40,42,44,46,48,50,52,54,56,58,60,62,-1,-1,-1,-1,-1,-1,-1,-1,-1,-1,-1,-1,-1,-1,-1,-1,-1,-1,-1,-1,-1,-1,-1,-1,-1,-1,-1,-1,-1,-1,-1,-1],"split_conditions":[9.93827E-1,9.531708E-1,6.516617E-1,9.521456E-1,9.6210456E-1,3.7327915E-1,8.5361683E-1,4.7557002E-1,6.107492E-2,3.897188E-1,1.5432524E-3,9.943506E-1,6.282674E-1,3.7254685E-1,2.992874E-1,9.3717045E-1,3.3311364E-1,9.9344116E-1,9.606766E-1,6.144996E-2,5.456026E-2,5.6876715E-2,9.945466E-1,6.2797177E-1,9.950395E-1,3.836775E-1,9.9526E-1,6.143144E-1,5.5962067E-2,8.537224E-1,3.361892E-1,1.6323363E0,4.1282293E-1,6.792045E-1,-1.0246744E0,-7.8404284E-1,-1.691396E0,-2.387146E0,-3.5431163E0,1.2224638E0,-1.7654275E0,-3.5294697E-1,-2.9376762E0,1.0313337E0,-3.8425586E0,-2.943133E0,8.1171364E-1,1.9311196E0,5.1192915E-1,-6.5978754E-1,-2.2589452E0,-2.2373755E-1,-2.0353982E0,-2.14156E0,-2.8966196E0,-1.8386891E0,-6.2923145E-1,-0E0,-2.8539279E0,-2.680106E0,-3.4344404E0,-1.5376542E0,-2.6498218E0],"split_indices":[309,310,306,388,310,310,306,385,385,388,309,309,306,310,300,388,388,270,388,265,385,213,347,306,309,310,309,305,109,306,310,0,0,0,0,0,0,0,0,0,0,0,0,0,0,0,0,0,0,0,0,0,0,0,0,0,0,0,0,0,0,0,0],"split_type":[0,0,0,0,0,0,0,0,0,0,0,0,0,0,0,0,0,0,0,0,0,0,0,0,0,0,0,0,0,0,0,0,0,0,0,0,0,0,0,0,0,0,0,0,0,0,0,0,0,0,0,0,0,0,0,0,0,0,0,0,0,0,0],"sum_hessian":[4.5959E4,3.9555E4,6.404E3,3.7752E4,1.803E3,3.163E3,3.241E3,3.6444E4,1.308E3,9.02E2,9.01E2,1.509E3,1.654E3,1.021E3,2.22E3,1.2138E4,2.4306E4,6.34E2,6.74E2,6.39E2,2.63E2,2.39E2,6.62E2,1.192E3,3.17E2,5.84E2,1.07E3,7.12E2,3.09E2,1.123E3,1.097E3,9.876E3,2.262E3,1.5295E4,9.011E3,3.17E2,3.17E2,2.18E2,4.56E2,1.5E1,6.24E2,4E1,2.23E2,2E0,2.37E2,6.57E2,5E0,2.23E2,9.69E2,2.39E2,7.8E1,3E2,2.84E2,7.13E2,3.57E2,6.07E2,1.05E2,2E0,3.07E2,5.04E2,6.19E2,3.36E2,7.61E2],"tree_param":{"num_deleted":"0","num_feature":"390","num_nodes":"63","size_leaf_vector":"1"}},{"base_weights":[-8.295243E-3,3.8703558E0,-1.1972235E1,9.103145E0,-4.949682E0,7.8747625E0,-1.8548534E1,1.1102922E1,-1.0989504E1,4.1809064E-1,-2.4821457E1,1.2358371E1,-6.3893094E0,-1.1920035E1,-2.3234943E1,1.3930735E1,6.7855206E0,-2.1117989E1,-3.6924748E0,6.0486765E0,-2.2901749E1,-1.8521412E1,-3.2966106E1,1.8302324E1,6.3654714E0,-1.5408924E0,-1.3895467E1,-9.075654E0,-2.824258E1,-2.1177912E1,-3.2635162E1,1.6064351E0,7.701434E-1,1.847119E0,4.572653E-1,-1.4670426E0,-2.466018E0,1.3043024E-1,-9.6644086E-1,1.3813493E0,1.8839729E-1,-1.6842173E0,-2.875956E0,-1.4155991E0,-2.8905647E0,-2.4892085E0,-3.4521797E0,1.9832573E0,1.0034527E0,9.351843E-1,-8.0079997E-1,8.7938815E-1,-4.1899607E-1,-1.4490565E0,1.5500714E-1,-4.5443058E-1,-1.8464041E0,-3.0171134E0,-1.6472574E0,-1.418288E0,-2.3075094E0,-1.5482548E0,-3.3001869E0],"categories":[],"categories_nodes":[],"categories_segments":[],"categories_sizes":[],"default_left":[0,0,0,0,0,0,0,0,0,0,0,0,0,0,0,0,0,0,0,0,0,0,0,0,0,0,0,0,0,0,0,0,0,0,0,0,0,0,0,0,0,0,0,0,0,0,0,0,0,0,0,0,0,0,0,0,0,0,0,0,0,0,0],"id":11,"left_children":[1,3,5,7,9,11,13,15,17,19,21,23,25,27,29,31,33,35,37,39,41,43,45,47,49,51,53,55,57,59,61,-1,-1,-1,-1,-1,-1,-1,-1,-1,-1,-1,-1,-1,-1,-1,-1,-1,-1,-1,-1,-1,-1,-1,-1,-1,-1,-1,-1,-1,-1,-1,-1],"loss_changes":[2.1328525E6,1.6019786E6,1.4689925E6,8.7546275E5,1.3788209E6,1.7927525E5,2.6195425E5,2.416035E5,1.4542016E5,1.3361231E6,1.3993038E5,7.5581875E4,2.4207523E4,1.6205256E5,9.44865E4,1.58731E5,2.0254772E5,1.8086688E4,3.4353016E4,2.6492522E5,6.930594E4,6.9560125E4,1.3581625E4,1.3027125E4,4.5760027E4,1.1188213E4,2.5600703E3,1.2671655E5,1.0817406E4,5.3246125E4,4.577125E3,0E0,0E0,0E0,0E0,0E0,0E0,0E0,0E0,0E0,0E0,0E0,0E0,0E0,0E0,0E0,0E0,0E0,0E0,0E0,0E0,0E0,0E0,0E0,0E0,0E0,0E0,0E0,0E0,0E0,0E0,0E0,0E0],"parents":[2147483647,0,0,1,1,2,2,3,3,4,4,5,5,6,6,7,7,8,8,9,9,10,10,11,11,12,12,13,13,14,14,15,15,16,16,17,17,18,18,19,19,20,20,21,21,22,22,23,23,24,24,25,25,26,26,27,27,28,28,29,29,30,30],"right_children":[2,4,6,8,10,12,14,16,18,20,22,24,26,28,30,32,34,36,38,40,42,44,46,48,50,52,54,56,58,60,62,-1,-1,-1,-1,-1,-1,-1,-1,-1,-1,-1,-1,-1,-1,-1,-1,-1,-1,-1,-1,-1,-1,-1,-1,-1,-1,-1,-1,-1,-1,-1,-1],"split_conditions":[9.9366164E-1,3.7741652E-1,2.5809947E-1,9.303182E-1,2.6007318E-1,9.9418527E-1,9.93827E-1,9.9344116E-1,9.938871E-1,9.523286E-1,2.7446684E-1,2.4156357E-1,9.9462616E-1,9.4225675E-1,7.201897E-1,3.6548036E-1,2.529004E-1,9.4225675E-1,9.3816495E-1,6.120926E-2,7.858759E-2,3.951743E-1,3.8353103E-1,3.7390158E-1,3.7858817E-1,2.3679776E-1,9.963729E-1,3.3223492E-1,9.9373496E-1,2.7121744E-1,6.9806314E-1,1.6064351E0,7.701434E-1,1.847119E0,4.572653E-1,-1.4670426E0,-2.466018E0,1.3043024E-1,-9.6644086E-1,1.3813493E0,1.8839729E-1,-1.6842173E0,-2.875956E0,-1.4155991E0,-2.8905647E0,-2.4892085E0,-3.4521797E0,1.9832573E0,1.0034527E0,9.351843E-1,-8.0079997E-1,8.7938815E-1,-4.1899607E-1,-1.4490565E0,1.5500714E-1,-4.5443058E-1,-1.8464041E0,-3.0171134E0,-1.6472574E0,-1.418288E0,-2.3075094E0,-1.5482548E0,-3.3001869E0],"split_indices":[335,336,330,330,330,335,335,335,334,336,330,330,335,330,330,336,330,330,330,330,330,336,336,336,336,330,152,336,334,330,329,0,0,0,0,0,0,0,0,0,0,0,0,0,0,0,0,0,0,0,0,0,0,0,0,0,0,0,0,0,0,0,0],"split_type":[0,0,0,0,0,0,0,0,0,0,0,0,0,0,0,0,0,0,0,0,0,0,0,0,0,0,0,0,0,0,0,0,0,0,0,0,0,0,0,0,0,0,0,0,0,0,0,0,0,0,0,0,0,0,0,0,0,0,0,0,0,0,0],"sum_hessian":[4.5959E4,3.4707E4,1.1252E4,2.1784E4,1.2923E4,2.8E3,8.452E3,1.9813E4,1.971E3,1.0175E4,2.748E3,2.131E3,6.69E2,3.503E3,4.949E3,1.1969E4,7.844E3,8.24E2,1.147E3,8.197E3,1.978E3,1.552E3,1.196E3,1.068E3,1.063E3,4.08E2,2.61E2,2.985E3,5.18E2,4.064E3,8.85E2,8.913E3,3.056E3,1.247E3,6.597E3,2.95E2,5.29E2,6.24E2,5.23E2,2.86E3,5.337E3,9.75E2,1.003E3,1.095E3,4.57E2,1.97E2,9.99E2,8.99E2,1.69E2,8.81E2,1.82E2,8.2E1,3.26E2,2.52E2,9E0,2.015E3,9.7E2,4.43E2,7.5E1,8.7E2,3.194E3,2E1,8.65E2],"tree_param":{"num_deleted":"0","num_feature":"390","num_nodes":"63","size_leaf_vector":"1"}},{"base_weights":[-8.197332E-3,3.8493207E0,-1.1182928E1,6.498078E0,-8.682922E0,1.0067371E1,-1.6517351E1,8.093752E0,-4.648512E0,1.2564769E1,-1.5356777E1,1.30373745E1,-5.0890064E0,-1.389744E1,-2.4613571E1,8.592265E0,-1.8618795E1,4.750224E0,-1.9759802E1,1.4855878E1,-1.911743E0,-1.1566406E1,-2.4890959E1,1.6597368E1,8.010737E0,-1.8119969E0,-1.239744E1,-1.7891266E1,-6.4072313E0,-2.5744434E1,-4.4531198E0,1.341303E0,5.840802E-1,-1.1019096E0,-3.0307488E0,1.5992367E0,-1.2308253E-1,-2.1246623E-1,-2.3411195E0,1.7644627E0,9.971468E-1,3.750062E-1,-9.247636E-1,-3.0887702E-1,-1.6318349E0,-1.6148808E0,-2.916094E0,1.7881464E0,5.054514E-1,1.3244542E0,-1.3362001E-1,4.5463428E-1,-4.812025E-1,-2.1705358E0,-8.903699E-1,-8.250845E-1,-2.1314085E0,1.9037242E-1,-1.0622921E0,-1.813999E0,-2.7278337E0,-1.0593414E0,1.249719E0],"categories":[],"categories_nodes":[],"categories_segments":[],"categories_sizes":[],"default_left":[0,0,0,0,0,0,0,0,0,0,0,0,0,0,0,0,0,0,0,0,0,0,0,0,0,0,0,0,0,0,0,0,0,0,0,0,0,0,0,0,0,0,0,0,0,0,0,0,0,0,0,0,0,0,0,0,0,0,0,0,0,0,0],"id":12,"left_children":[1,3,5,7,9,11,13,15,17,19,21,23,25,27,29,31,33,35,37,39,41,43,45,47,49,51,53,55,57,59,61,-1,-1,-1,-1,-1,-1,-1,-1,-1,-1,-1,-1,-1,-1,-1,-1,-1,-1,-1,-1,-1,-1,-1,-1,-1,-1,-1,-1,-1,-1,-1,-1],"loss_changes":[1.9813014E6,1.1341705E6,1.3372894E6,5.01753E5,8.455145E5,1.06695125E5,1.99275E5,3.2864575E5,5.0188344E5,4.7421203E4,1.6330612E5,3.5052656E4,9.127966E3,2.1284362E5,5.208875E4,3.2104E5,3.9404188E4,1.4661561E5,8.6947125E4,1.6315844E4,8.1888623E3,1.3064228E5,4.7192812E4,1.68295E4,4.044689E4,5.174837E3,3.3704668E3,1.528675E5,8.703276E4,2.44795E4,1.3019259E4,0E0,0E0,0E0,0E0,0E0,0E0,0E0,0E0,0E0,0E0,0E0,0E0,0E0,0E0,0E0,0E0,0E0,0E0,0E0,0E0,0E0,0E0,0E0,0E0,0E0,0E0,0E0,0E0,0E0,0E0,0E0,0E0],"parents":[2147483647,0,0,1,1,2,2,3,3,4,4,5,5,6,6,7,7,8,8,9,9,10,10,11,11,12,12,13,13,14,14,15,15,16,16,17,17,18,18,19,19,20,20,21,21,22,22,23,23,24,24,25,25,26,26,27,27,28,28,29,29,30,30],"right_children":[2,4,6,8,10,12,14,16,18,20,22,24,26,28,30,32,34,36,38,40,42,44,46,48,50,52,54,56,58,60,62,-1,-1,-1,-1,-1,-1,-1,-1,-1,-1,-1,-1,-1,-1,-1,-1,-1,-1,-1,-1,-1,-1,-1,-1,-1,-1,-1,-1,-1,-1,-1,-1],"split_conditions":[9.9366164E-1,9.9366164E-1,4.7394136E-1,9.9366164E-1,4.7394136E-1,9.9426794E-1,7.760586E-1,9.523286E-1,8.535535E-1,9.9418527E-1,7.7198696E-1,4.617264E-1,9.948742E-1,4.710463E-1,9.9336547E-1,4.7394136E-1,6.188925E-2,2.4820681E-1,6.799674E-1,4.6254072E-1,9.9448836E-1,7.363421E-1,9.9377185E-1,6.512605E-1,1.3564985E-1,4.6742672E-1,2.9714966E-1,4.8941368E-1,8.534901E-1,8.5365903E-1,9.9474955E-1,1.341303E0,5.840802E-1,-1.1019096E0,-3.0307488E0,1.5992367E0,-1.2308253E-1,-2.1246623E-1,-2.3411195E0,1.7644627E0,9.971468E-1,3.750062E-1,-9.247636E-1,-3.0887702E-1,-1.6318349E0,-1.6148808E0,-2.916094E0,1.7881464E0,5.054514E-1,1.3244542E0,-1.3362001E-1,4.5463428E-1,-4.812025E-1,-2.1705358E0,-8.903699E-1,-8.250845E-1,-2.1314085E0,1.9037242E-1,-1.0622921E0,-1.813999E0,-2.7278337E0,-1.0593414E0,1.249719E0],"split_indices":[387,361,385,322,359,387,385,336,319,361,359,385,387,386,383,333,333,317,320,359,361,352,361,384,383,333,287,385,384,384,386,0,0,0,0,0,0,0,0,0,0,0,0,0,0,0,0,0,0,0,0,0,0,0,0,0,0,0,0,0,0,0,0],"split_type":[0,0,0,0,0,0,0,0,0,0,0,0,0,0,0,0,0,0,0,0,0,0,0,0,0,0,0,0,0,0,0,0,0,0,0,0,0,0,0,0,0,0,0,0,0,0,0,0,0,0,0,0,0,0,0,0,0,0,0,0,0,0,0],"sum_hessian":[4.5959E4,3.4165E4,1.1794E4,2.8205E4,5.96E3,2.366E3,9.428E3,2.4674E4,3.531E3,1.424E3,4.536E3,1.979E3,3.87E2,7.126E3,2.302E3,2.4223E4,4.51E2,2.177E3,1.354E3,1.23E3,1.94E2,3.248E3,1.288E3,1.156E3,8.23E2,2.69E2,1.18E2,4.646E3,2.48E3,2.179E3,1.23E2,8.799E3,1.5424E4,2.75E2,1.76E2,7.56E2,1.421E3,2.33E2,1.121E3,7.8E2,4.5E2,1.09E2,8.5E1,1.168E3,2.08E3,4.25E2,8.63E2,1.039E3,1.17E2,5.28E2,2.95E2,8.5E1,1.84E2,3E1,8.8E1,1.219E3,3.427E3,8.34E2,1.646E3,3.69E2,1.81E3,9.1E1,3.2E1],"tree_param":{"num_deleted":"0","num_feature":"390","num_nodes":"63","size_leaf_vector":"1"}},{"base_weights":[-7.864012E-3,3.4640205E0,-1.006555E1,5.8480463E0,-7.8155127E0,-1.3056324E0,-1.5195376E1,7.1513004E0,-7.1676464E0,9.8221655E0,-1.412637E1,4.713142E0,-1.4263381E1,-1.038142E1,-1.907574E1,1.0148479E1,1.3171579E0,3.7998018E0,-1.9870148E1,1.2860602E1,-5.300027E0,-8.816581E0,-1.9957888E1,1.3003756E1,1.2661747E0,-1.0690331E1,-1.997493E1,-7.3324575E0,-2.1618292E1,-1.665901E1,-2.3286001E1,1.3965849E0,6.1069506E-1,4.935275E-1,-1.3521365E0,6.7128956E-1,-1.933227E0,-1.6084737E0,-2.753884E0,1.5604628E0,5.8010125E-1,1.5149921E0,-7.086648E-1,-2.7851948E-1,-1.8649536E0,-1.7216231E0,-2.995192E0,1.3456205E0,-1.5004132E0,-5.15345E-1,9.3863815E-1,-1.1541766E0,2.7458227E-1,-0E0,-2.0187697E0,-1.7199692E0,-3.102646E-1,-2.5183103E0,-1.380947E0,-1.9014605E0,-1.3362213E0,-2.146668E0,-2.6714358E0],"categories":[],"categories_nodes":[],"categories_segments":[],"categories_sizes":[],"default_left":[0,0,0,0,0,0,0,0,0,0,0,0,0,0,0,0,0,0,0,0,0,0,0,0,0,0,0,0,0,0,0,0,0,0,0,0,0,0,0,0,0,0,0,0,0,0,0,0,0,0,0,0,0,0,0,0,0,0,0,0,0,0,0],"id":13,"left_children":[1,3,5,7,9,11,13,15,17,19,21,23,25,27,29,31,33,35,37,39,41,43,45,47,49,51,53,55,57,59,61,-1,-1,-1,-1,-1,-1,-1,-1,-1,-1,-1,-1,-1,-1,-1,-1,-1,-1,-1,-1,-1,-1,-1,-1,-1,-1,-1,-1,-1,-1,-1,-1],"loss_changes":[1.6049839E6,9.187737E5,5.298454E5,4.785025E5,6.6369406E5,3.4004216E5,1.3844838E5,4.4821238E5,3.578553E5,7.232781E4,1.3549975E5,8.48874E4,2.7703562E4,1.1340066E5,4.109325E4,2.61018E5,4.67277E5,9.286133E4,3.36655E4,2.5052984E4,9.635777E3,1.3619761E5,5.63065E4,1.1249203E4,1.0976943E5,9.889422E3,2.0837344E3,1.0892642E5,1.8970875E4,1.9768875E4,8.282E3,0E0,0E0,0E0,0E0,0E0,0E0,0E0,0E0,0E0,0E0,0E0,0E0,0E0,0E0,0E0,0E0,0E0,0E0,0E0,0E0,0E0,0E0,0E0,0E0,0E0,0E0,0E0,0E0,0E0,0E0,0E0,0E0],"parents":[2147483647,0,0,1,1,2,2,3,3,4,4,5,5,6,6,7,7,8,8,9,9,10,10,11,11,12,12,13,13,14,14,15,15,16,16,17,17,18,18,19,19,20,20,21,21,22,22,23,23,24,24,25,25,26,26,27,27,28,28,29,29,30,30],"right_children":[2,4,6,8,10,12,14,16,18,20,22,24,26,28,30,32,34,36,38,40,42,44,46,48,50,52,54,56,58,60,62,-1,-1,-1,-1,-1,-1,-1,-1,-1,-1,-1,-1,-1,-1,-1,-1,-1,-1,-1,-1,-1,-1,-1,-1,-1,-1,-1,-1,-1,-1,-1,-1],"split_conditions":[9.9366164E-1,9.9366164E-1,3.4108087E-1,9.937168E-1,2.5752178E-1,9.94323E-1,9.93827E-1,3.7507322E-1,8.534901E-1,9.9418527E-1,9.93827E-1,2.9668155E-1,9.9526E-1,9.3677366E-1,7.0981985E-1,9.934136E-1,1.3203046E-1,9.945435E-1,7.1875E-1,2.474125E-1,2.3217638E-1,6.611616E-1,7.216098E-1,9.993877E-1,1.3703403E-1,9.955612E-1,3.1524606E-2,4.71672E-1,9.923154E-1,4.707174E-1,9.94075E-1,1.3965849E0,6.1069506E-1,4.935275E-1,-1.3521365E0,6.7128956E-1,-1.933227E0,-1.6084737E0,-2.753884E0,1.5604628E0,5.8010125E-1,1.5149921E0,-7.086648E-1,-2.7851948E-1,-1.8649536E0,-1.7216231E0,-2.995192E0,1.3456205E0,-1.5004132E0,-5.15345E-1,9.3863815E-1,-1.1541766E0,2.7458227E-1,-0E0,-2.0187697E0,-1.7199692E0,-3.102646E-1,-2.5183103E0,-1.380947E0,-1.9014605E0,-1.3362213E0,-2.146668E0,-2.6714358E0],"split_indices":[387,361,381,335,356,387,387,336,332,361,361,381,387,381,381,335,328,335,337,356,356,354,356,254,383,74,336,383,383,383,387,0,0,0,0,0,0,0,0,0,0,0,0,0,0,0,0,0,0,0,0,0,0,0,0,0,0,0,0,0,0,0,0],"split_type":[0,0,0,0,0,0,0,0,0,0,0,0,0,0,0,0,0,0,0,0,0,0,0,0,0,0,0,0,0,0,0,0,0,0,0,0,0,0,0,0,0,0,0,0,0,0,0,0,0,0,0,0,0,0,0,0,0,0,0,0,0,0,0],"sum_hessian":[4.5959E4,3.4165E4,1.1794E4,2.8205E4,5.96E3,4.357E3,7.437E3,2.5639E4,2.566E3,1.57E3,4.39E3,2.975E3,1.382E3,3.322E3,4.115E3,1.6936E4,8.703E3,1.377E3,1.189E3,1.308E3,2.62E2,2.3E3,2.09E3,8.72E2,2.103E3,8.53E2,5.29E2,2.615E3,7.07E2,2.619E3,1.496E3,8.707E3,8.229E3,6.998E3,1.705E3,1.224E3,1.53E2,7.99E2,3.9E2,9.4E2,3.68E2,2E1,2.42E2,1.427E3,8.73E2,1.643E3,4.47E2,8.59E2,1.3E1,1.174E3,9.29E2,8.03E2,5E1,6E0,5.23E2,7.83E2,1.832E3,4.83E2,2.24E2,1.523E3,1.096E3,9.84E2,5.12E2],"tree_param":{"num_deleted":"0","num_feature":"390","num_nodes":"63","size_leaf_vector":"1"}},{"base_weights":[-7.857655E-3,3.0124357E0,-9.181301E0,5.037779E0,-6.964844E0,-4.4267672E-1,-1.3986421E1,5.7129607E0,-1.7059893E1,8.663079E0,-1.3028636E1,4.5125756E0,-1.3638409E1,-1.1576737E1,-2.1435936E1,6.246899E0,-1.644953E1,-1.0121293E1,-2.4386585E1,1.1341067E1,-5.928259E0,-8.723095E0,-1.8077347E1,1.2348352E1,1.694695E0,-9.341425E0,-1.8357702E1,-1.4473674E1,-3.646282E0,-2.234111E1,4.4674077E0,7.938076E-1,-2.2000391E-2,-9.035048E-1,-2.5458322E0,-2.1987782E0,-6.892257E-1,-2.5135496E0,-4.8745728E-1,1.5191048E0,6.8561816E-1,1.5174552E0,-7.459143E-1,-6.689384E-1,-2.3073375E0,-1.5747379E0,-2.6564004E0,1.2948045E0,-1.3069106E0,-2.6198447E-1,9.774014E-1,-1.1163698E0,-2.238868E-1,-1.9631007E0,-1.3409195E0,-1.140294E0,-1.851721E0,-3.876032E-2,-1.2668127E0,-1.5820488E0,-2.3885164E0,1.2537864E0,-9.954667E-1],"categories":[],"categories_nodes":[],"categories_segments":[],"categories_sizes":[],"default_left":[0,0,0,0,0,0,0,0,0,0,0,0,0,0,0,0,0,0,0,0,0,0,0,0,0,0,0,0,0,0,0,0,0,0,0,0,0,0,0,0,0,0,0,0,0,0,0,0,0,0,0,0,0,0,0,0,0,0,0,0,0,0,0],"id":14,"left_children":[1,3,5,7,9,11,13,15,17,19,21,23,25,27,29,31,33,35,37,39,41,43,45,47,49,51,53,55,57,59,61,-1,-1,-1,-1,-1,-1,-1,-1,-1,-1,-1,-1,-1,-1,-1,-1,-1,-1,-1,-1,-1,-1,-1,-1,-1,-1,-1,-1,-1,-1,-1,-1],"loss_changes":[1.2734796E6,6.9870744E5,4.779072E5,4.288282E5,5.530124E5,2.6438647E5,1.312715E5,3.3005806E5,4.272122E4,6.38534E4,9.095844E4,6.4710508E4,2.1939234E4,1.2734075E5,4.2319062E4,2.9796125E5,4.3242906E4,1.6419277E4,5.6124375E3,2.3486188E4,8.209441E3,6.58548E4,3.7381E4,1.1996305E4,7.549617E4,7.360746E3,2.7080625E3,4.9975625E4,4.361068E4,1.6673312E4,7.2505977E3,0E0,0E0,0E0,0E0,0E0,0E0,0E0,0E0,0E0,0E0,0E0,0E0,0E0,0E0,0E0,0E0,0E0,0E0,0E0,0E0,0E0,0E0,0E0,0E0,0E0,0E0,0E0,0E0,0E0,0E0,0E0,0E0],"parents":[2147483647,0,0,1,1,2,2,3,3,4,4,5,5,6,6,7,7,8,8,9,9,10,10,11,11,12,12,13,13,14,14,15,15,16,16,17,17,18,18,19,19,20,20,21,21,22,22,23,23,24,24,25,25,26,26,27,27,28,28,29,29,30,30],"right_children":[2,4,6,8,10,12,14,16,18,20,22,24,26,28,30,32,34,36,38,40,42,44,46,48,50,52,54,56,58,60,62,-1,-1,-1,-1,-1,-1,-1,-1,-1,-1,-1,-1,-1,-1,-1,-1,-1,-1,-1,-1,-1,-1,-1,-1,-1,-1,-1,-1,-1,-1,-1,-1],"split_conditions":[9.9366164E-1,9.9366164E-1,3.3333334E-1,9.324104E-1,2.5826794E-1,9.944057E-1,7.1875E-1,9.3322474E-1,9.4299674E-1,9.942128E-1,9.93827E-1,2.9166666E-1,9.951498E-1,6.13494E-1,9.946988E-1,9.9355143E-1,9.4528955E-1,9.9207675E-1,9.9373496E-1,2.4192461E-1,2.3188755E-1,9.415828E-1,7.1932316E-1,9.169381E-1,1.3668992E-1,5.5294866E-3,4.61636E-3,6.666667E-1,9.93827E-1,9.937168E-1,9.934136E-1,7.938076E-1,-2.2000391E-2,-9.035048E-1,-2.5458322E0,-2.1987782E0,-6.892257E-1,-2.5135496E0,-4.8745728E-1,1.5191048E0,6.8561816E-1,1.5174552E0,-7.459143E-1,-6.689384E-1,-2.3073375E0,-1.5747379E0,-2.6564004E0,1.2948045E0,-1.3069106E0,-2.6198447E-1,9.774014E-1,-1.1163698E0,-2.238868E-1,-1.9631007E0,-1.3409195E0,-1.140294E0,-1.851721E0,-3.876032E-2,-1.2668127E0,-1.5820488E0,-2.3885164E0,1.2537864E0,-9.954667E-1],"split_indices":[348,322,350,385,317,348,350,359,385,322,322,350,348,347,347,244,356,383,334,317,317,317,317,359,347,347,347,350,348,348,75,0,0,0,0,0,0,0,0,0,0,0,0,0,0,0,0,0,0,0,0,0,0,0,0,0,0,0,0,0,0,0,0],"split_type":[0,0,0,0,0,0,0,0,0,0,0,0,0,0,0,0,0,0,0,0,0,0,0,0,0,0,0,0,0,0,0,0,0,0,0,0,0,0,0,0,0,0,0,0,0,0,0,0,0,0,0,0,0,0,0,0,0,0,0,0,0,0,0],"sum_hessian":[4.5959E4,3.4575E4,1.1384E4,2.8742E4,5.833E3,4.04E3,7.344E3,2.7891E4,8.51E2,1.63E3,4.203E3,2.937E3,1.103E3,5.552E3,1.792E3,2.7236E4,6.55E2,4.39E2,4.12E2,1.378E3,2.52E2,2.271E3,1.932E3,7.75E2,2.162E3,5.8E2,5.23E2,4.065E3,1.487E3,1.732E3,6E1,2.1591E4,5.645E3,3.61E2,2.94E2,9.2E1,3.47E2,3.96E2,1.6E1,7.39E2,6.39E2,1.6E1,2.36E2,1.991E3,2.8E2,1.519E3,4.13E2,7.58E2,1.7E1,1.409E3,7.53E2,4.6E2,1.2E2,4.12E2,1.11E2,2.314E3,1.751E3,1.094E3,3.93E2,3.35E2,1.397E3,3.9E1,2.1E1],"tree_param":{"num_deleted":"0","num_feature":"390","num_nodes":"63","size_leaf_vector":"1"}},{"base_weights":[-7.980184E-3,2.7105618E0,-8.265011E0,4.4369802E0,-6.5328937E0,8.60651E0,-1.2792719E1,5.0138E0,-1.7938704E1,8.955034E0,-1.2443486E1,1.2707534E1,2.2402248E0,-1.0754953E1,-1.971634E1,6.6858854E0,-1.3242794E0,-1.2442838E1,-2.5602478E1,1.3233245E1,1.8315064E0,-9.110409E0,-2.0847097E1,1.4332809E1,2.3739216E0,7.6364293E0,-2.2712324E0,-1.4176366E1,-4.84564E0,-2.1143011E1,-6.5155144E0,7.1635395E-1,-1.0936617E0,9.646438E-1,-5.387072E-1,3.8110587E-1,-1.4383558E0,1.5316153E0,-2.6094413E0,1.3967355E0,-9.914101E-1,2.9154083E-1,-1.8741871E0,-2.1655905E-1,-1.3129808E0,-1.4288687E0,-2.4839926E0,1.8141903E0,1.2264675E0,7.373305E-1,-2.2637081E-1,1.211278E0,3.718376E-1,1.1941526E0,-3.5468963E-1,-7.9558605E-1,-1.7561463E0,2.9690906E-1,-8.739956E-1,-1.502109E0,-2.287098E0,8.718632E-1,-1.0779989E0],"categories":[],"categories_nodes":[],"categories_segments":[],"categories_sizes":[],"default_left":[0,0,0,0,0,0,0,0,0,0,0,0,0,0,0,0,0,0,0,0,0,0,0,0,0,0,0,0,0,0,0,0,0,0,0,0,0,0,0,0,0,0,0,0,0,0,0,0,0,0,0,0,0,0,0,0,0,0,0,0,0,0,0],"id":15,"left_children":[1,3,5,7,9,11,13,15,17,19,21,23,25,27,29,31,33,35,37,39,41,43,45,47,49,51,53,55,57,59,61,-1,-1,-1,-1,-1,-1,-1,-1,-1,-1,-1,-1,-1,-1,-1,-1,-1,-1,-1,-1,-1,-1,-1,-1,-1,-1,-1,-1,-1,-1,-1,-1],"loss_changes":[1.03174594E6,5.517744E5,8.6984425E5,3.760113E5,4.9823088E5,6.2716906E4,1.2613725E5,3.0109325E5,3.013214E4,4.563047E4,1.0984144E5,2.4386766E4,2.3101127E4,1.4003512E5,3.7986625E4,1.8923988E5,2.6427525E5,1.3693023E4,6.6267344E3,1.6118141E4,1.2517906E4,7.861981E4,2.850425E4,9.430844E3,4.7280303E3,7.3733145E3,9.29572E3,9.210856E4,7.759658E4,1.8731375E4,1.3172689E4,0E0,0E0,0E0,0E0,0E0,0E0,0E0,0E0,0E0,0E0,0E0,0E0,0E0,0E0,0E0,0E0,0E0,0E0,0E0,0E0,0E0,0E0,0E0,0E0,0E0,0E0,0E0,0E0,0E0,0E0,0E0,0E0],"parents":[2147483647,0,0,1,1,2,2,3,3,4,4,5,5,6,6,7,7,8,8,9,9,10,10,11,11,12,12,13,13,14,14,15,15,16,16,17,17,18,18,19,19,20,20,21,21,22,22,23,23,24,24,25,25,26,26,27,27,28,28,29,29,30,30],"right_children":[2,4,6,8,10,12,14,16,18,20,22,24,26,28,30,32,34,36,38,40,42,44,46,48,50,52,54,56,58,60,62,-1,-1,-1,-1,-1,-1,-1,-1,-1,-1,-1,-1,-1,-1,-1,-1,-1,-1,-1,-1,-1,-1,-1,-1,-1,-1,-1,-1,-1,-1,-1,-1],"split_conditions":[9.9366164E-1,9.9366164E-1,4.7394136E-1,9.533172E-1,4.7394136E-1,2.4811053E-1,7.76873E-1,9.9355143E-1,9.6228766E-1,2.4729216E-1,7.703583E-1,9.9418527E-1,4.617264E-1,4.7171974E-1,9.9281657E-1,9.307818E-1,4.7394136E-1,6.0083978E-2,5.6876715E-2,9.9448836E-1,9.994088E-1,2.382332E-1,9.9377185E-1,4.5439738E-1,2.3973428E-1,9.938821E-1,6.278662E-1,2.70712E-1,8.534901E-1,8.536802E-1,9.2671007E-1,7.1635395E-1,-1.0936617E0,9.646438E-1,-5.387072E-1,3.8110587E-1,-1.4383558E0,1.5316153E0,-2.6094413E0,1.3967355E0,-9.914101E-1,2.9154083E-1,-1.8741871E0,-2.1655905E-1,-1.3129808E0,-1.4288687E0,-2.4839926E0,1.8141903E0,1.2264675E0,7.373305E-1,-2.2637081E-1,1.211278E0,3.718376E-1,1.1941526E0,-3.5468963E-1,-7.9558605E-1,-1.7561463E0,2.9690906E-1,-8.739956E-1,-1.502109E0,-2.287098E0,8.718632E-1,-1.0779989E0],"split_indices":[348,257,346,375,255,343,346,231,375,252,255,348,346,344,344,385,229,316,213,257,345,247,257,346,343,348,345,343,345,345,346,0,0,0,0,0,0,0,0,0,0,0,0,0,0,0,0,0,0,0,0,0,0,0,0,0,0,0,0,0,0,0,0],"split_type":[0,0,0,0,0,0,0,0,0,0,0,0,0,0,0,0,0,0,0,0,0,0,0,0,0,0,0,0,0,0,0,0,0,0,0,0,0,0,0,0,0,0,0,0,0,0,0,0,0,0,0,0,0,0,0,0,0,0,0,0,0,0,0],"sum_hessian":[4.5959E4,3.4575E4,1.1384E4,2.9135E4,5.44E3,2.408E3,8.976E3,2.8404E4,7.31E2,1.502E3,3.938E3,1.463E3,9.45E2,6.938E3,2.038E3,2.2476E4,5.928E3,4.28E2,3.03E2,9.37E2,5.65E2,2.822E3,1.116E3,1.263E3,2E2,4.31E2,5.14E2,4.392E3,2.546E3,1.838E3,2E2,2.1884E4,5.92E2,1.601E3,4.327E3,4.5E1,3.83E2,3E0,3E2,9.09E2,2.8E1,5.38E2,2.7E1,1.036E3,1.786E3,4.25E2,6.91E2,4.4E2,8.23E2,9.7E1,1.03E2,1.99E2,2.32E2,4.1E1,4.73E2,1.55E3,2.842E3,8.46E2,1.7E3,4.08E2,1.43E3,4.3E1,1.57E2],"tree_param":{"num_deleted":"0","num_feature":"390","num_nodes":"63","size_leaf_vector":"1"}},{"base_weights":[-7.4624773E-3,2.6608696E0,-7.9848385E0,6.2262597E0,-4.7585554E0,7.9516425E0,-1.2160313E1,7.6039815E0,-8.73014E0,6.553596E0,-1.312642E1,9.854194E0,-2.8574152E0,-8.24357E0,-1.583686E1,1.3429991E1,6.2949057E0,-4.903754E0,-1.5531365E1,1.2831234E1,-1.9952756E-1,-9.408068E0,-2.4470984E1,1.2074199E1,3.879641E0,2.6243764E-1,-9.892244E0,-3.37129E0,-1.4040729E1,-4.786943E0,-1.853917E1,1.5964005E0,8.01859E-1,1.0125374E0,1.8816752E-2,-1.1533841E0,-2.40482E-1,-3.0422437E-1,-1.7154263E0,1.6171716E0,9.576573E-1,6.033314E-1,-4.0793824E-1,-2.4570929E-1,-1.6325257E0,-1.8610896E0,-2.6451395E0,1.6848348E0,9.98638E-1,7.9453814E-1,-3.3629882E-1,2.4758854E0,-5.1031657E-2,-1.0686237E0,7.077624E-1,1.9195294E-1,-6.024131E-1,-9.432003E-1,-1.6669403E0,-5.2332144E-2,-8.8045275E-1,-1.8964388E0,7.5391203E-1],"categories":[],"categories_nodes":[],"categories_segments":[],"categories_sizes":[],"default_left":[0,0,0,0,0,0,0,0,0,0,0,0,0,0,0,0,0,0,0,0,0,0,0,0,0,0,0,0,0,0,0,0,0,0,0,0,0,0,0,0,0,0,0,0,0,0,0,0,0,0,0,0,0,0,0,0,0,0,0,0,0,0,0],"id":16,"left_children":[1,3,5,7,9,11,13,15,17,19,21,23,25,27,29,31,33,35,37,39,41,43,45,47,49,51,53,55,57,59,61,-1,-1,-1,-1,-1,-1,-1,-1,-1,-1,-1,-1,-1,-1,-1,-1,-1,-1,-1,-1,-1,-1,-1,-1,-1,-1,-1,-1,-1,-1,-1,-1],"loss_changes":[9.7839225E5,9.110906E5,7.6677344E5,4.794068E5,1.0582449E6,4.9289094E4,1.3110138E5,1.62182E5,5.077878E4,2.0162595E5,2.704995E5,2.6784922E4,7.9561475E3,1.2473609E5,1.4023038E5,5.31935E4,4.068397E5,2.0675611E4,1.4035203E4,2.6376594E4,5.5383043E4,2.3258131E5,1.7451625E4,1.43353125E4,1.6385988E4,4.949688E3,1.6073262E3,3.3822508E4,2.4041625E4,1.5781123E4,4.2184625E4,0E0,0E0,0E0,0E0,0E0,0E0,0E0,0E0,0E0,0E0,0E0,0E0,0E0,0E0,0E0,0E0,0E0,0E0,0E0,0E0,0E0,0E0,0E0,0E0,0E0,0E0,0E0,0E0,0E0,0E0,0E0,0E0],"parents":[2147483647,0,0,1,1,2,2,3,3,4,4,5,5,6,6,7,7,8,8,9,9,10,10,11,11,12,12,13,13,14,14,15,15,16,16,17,17,18,18,19,19,20,20,21,21,22,22,23,23,24,24,25,25,26,26,27,27,28,28,29,29,30,30],"right_children":[2,4,6,8,10,12,14,16,18,20,22,24,26,28,30,32,34,36,38,40,42,44,46,48,50,52,54,56,58,60,62,-1,-1,-1,-1,-1,-1,-1,-1,-1,-1,-1,-1,-1,-1,-1,-1,-1,-1,-1,-1,-1,-1,-1,-1,-1,-1,-1,-1,-1,-1,-1,-1],"split_conditions":[9.9366164E-1,3.831649E-1,4.7394136E-1,9.2508143E-1,5.5374593E-2,9.942955E-1,8.535746E-1,4.6824104E-1,9.397394E-1,9.388547E-1,5E-1,1.8414533E-1,1.8708138E-1,3.7573227E-1,6.815961E-1,1.8377833E-1,3.2703573E-1,9.938364E-1,9.831177E-1,3.5016287E-2,1.6810428E-3,5.554851E-3,3.9165935E-1,4.5439738E-1,4.6254072E-1,4.4625407E-1,9.487742E-1,9.932483E-1,4.92671E-1,6.7019546E-1,9.9467343E-1,1.5964005E0,8.01859E-1,1.0125374E0,1.8816752E-2,-1.1533841E0,-2.40482E-1,-3.0422437E-1,-1.7154263E0,1.6171716E0,9.576573E-1,6.033314E-1,-4.0793824E-1,-2.4570929E-1,-1.6325257E0,-1.8610896E0,-2.6451395E0,1.6848348E0,9.98638E-1,7.9453814E-1,-3.3629882E-1,2.4758854E0,-5.1031657E-2,-1.0686237E0,7.077624E-1,1.9195294E-1,-6.024131E-1,-9.432003E-1,-1.6669403E0,-5.2332144E-2,-8.8045275E-1,-1.8964388E0,7.5391203E-1],"split_indices":[361,362,359,359,359,361,358,359,359,362,359,354,354,362,359,354,362,360,354,359,361,360,362,359,359,359,212,23,359,359,360,0,0,0,0,0,0,0,0,0,0,0,0,0,0,0,0,0,0,0,0,0,0,0,0,0,0,0,0,0,0,0,0],"split_type":[0,0,0,0,0,0,0,0,0,0,0,0,0,0,0,0,0,0,0,0,0,0,0,0,0,0,0,0,0,0,0,0,0,0,0,0,0,0,0,0,0,0,0,0,0,0,0,0,0,0,0,0,0,0,0,0,0,0,0,0,0,0,0],"sum_hessian":[4.5959E4,3.4439E4,1.152E4,2.3262E4,1.1177E4,2.391E3,9.129E3,2.1301E4,1.961E3,4.752E3,6.425E3,2.034E3,3.57E2,4.423E3,4.706E3,3.905E3,1.7396E4,1.257E3,7.04E2,2.463E3,2.289E3,4.841E3,1.584E3,1.481E3,5.53E2,2.47E2,1.1E2,2.405E3,2.018E3,9.26E2,3.78E3,2.657E3,1.248E3,1.0689E4,6.707E3,3.42E2,9.15E2,8.2E1,6.22E2,1.212E3,1.251E3,8.77E2,1.412E3,2.416E3,2.425E3,4.04E2,1.18E3,4.47E2,1.034E3,3.55E2,1.98E2,7E0,2.4E2,1.06E2,4E0,8.02E2,1.603E3,7.36E2,1.282E3,4.51E2,4.75E2,3.72E3,6E1],"tree_param":{"num_deleted":"0","num_feature":"390","num_nodes":"63","size_leaf_vector":"1"}},{"base_weights":[-6.8565104E-3,2.42975E0,-7.1764655E0,6.504057E0,-3.7103398E0,-1.0958764E1,-2.6344664E0,1.0396508E1,2.616041E0,-1.6009557E0,-1.6178514E1,-7.7359166E0,-1.4157859E1,4.771007E0,-1.0656804E1,1.0787019E1,-6.863024E0,1.197567E0,1.159276E1,6.6938505E0,-6.8826466E0,-1.2135125E1,-1.9523767E1,-5.9732976E0,-1.998097E1,-1.2417043E1,-1.7738552E1,8.169769E0,-3.8832026E0,-7.155129E0,-1.4380644E1,1.1951084E0,6.758386E-1,2.7293846E-1,-1.2983463E0,3.8256276E-1,-2.6255378E-1,1.2445238E0,-4.0188858E-1,1.2885767E0,1.949844E-1,-1.1946928E-1,-1.5184735E0,-9.8586273E-1,-1.6044569E0,-2.632119E0,-1.7156547E0,-1.4184922E0,-2.8189817E-1,-2.505609E0,-1.5922965E0,-1.0933207E0,-1.5418068E0,-1.2646242E0,-1.9670594E0,8.634679E-1,-1.0921798E0,-8.279604E-2,-1.1238072E0,-1.2910007E0,-3.8950723E-1,-1.2488621E0,-1.7365134E0],"categories":[],"categories_nodes":[],"categories_segments":[],"categories_sizes":[],"default_left":[0,0,0,0,0,0,0,0,0,0,0,0,0,0,0,0,0,0,0,0,0,0,0,0,0,0,0,0,0,0,0,0,0,0,0,0,0,0,0,0,0,0,0,0,0,0,0,0,0,0,0,0,0,0,0,0,0,0,0,0,0,0,0],"id":17,"left_children":[1,3,5,7,9,11,13,15,17,19,21,23,25,27,29,31,33,35,37,39,41,43,45,47,49,51,53,55,57,59,61,-1,-1,-1,-1,-1,-1,-1,-1,-1,-1,-1,-1,-1,-1,-1,-1,-1,-1,-1,-1,-1,-1,-1,-1,-1,-1,-1,-1,-1,-1,-1,-1],"loss_changes":[8.029638E5,8.581718E5,2.001275E5,3.1191912E5,3.5963522E5,6.5244375E4,3.149785E5,6.9555625E4,1.3125255E5,5.1280722E5,2.6214781E4,6.808353E4,1.935625E4,8.11385E4,3.286772E4,4.69845E4,1.3523802E4,8.9574086E4,1.8859453E4,1.335686E5,3.37549E5,7.5926562E3,1.6491906E4,7.166817E4,7.388E3,9.146375E3,9.6503125E3,1.7645578E4,1.732993E4,2.4452672E4,6.4357344E3,0E0,0E0,0E0,0E0,0E0,0E0,0E0,0E0,0E0,0E0,0E0,0E0,0E0,0E0,0E0,0E0,0E0,0E0,0E0,0E0,0E0,0E0,0E0,0E0,0E0,0E0,0E0,0E0,0E0,0E0,0E0,0E0],"parents":[2147483647,0,0,1,1,2,2,3,3,4,4,5,5,6,6,7,7,8,8,9,9,10,10,11,11,12,12,13,13,14,14,15,15,16,16,17,17,18,18,19,19,20,20,21,21,22,22,23,23,24,24,25,25,26,26,27,27,28,28,29,29,30,30],"right_children":[2,4,6,8,10,12,14,16,18,20,22,24,26,28,30,32,34,36,38,40,42,44,46,48,50,52,54,56,58,60,62,-1,-1,-1,-1,-1,-1,-1,-1,-1,-1,-1,-1,-1,-1,-1,-1,-1,-1,-1,-1,-1,-1,-1,-1,-1,-1,-1,-1,-1,-1,-1,-1],"split_conditions":[9.9366164E-1,3.755126E-1,5.9508187E-1,9.934136E-1,9.533172E-1,9.93827E-1,3.739382E-1,9.472027E-1,8.332365E-1,2.507785E-3,9.6228766E-1,3.3845928E-1,3.915129E-1,9.9418527E-1,3.850322E-1,3.6544377E-1,5.165922E-2,9.9355143E-1,9.2227894E-1,9.3603545E-1,3.8949913E-1,3.8305506E-1,1.4881362E-3,9.6624196E-2,9.9333096E-1,9.941026E-1,6.8021126E-2,9.993455E-1,9.95012E-1,9.997643E-1,3.94442E-1,1.1951084E0,6.758386E-1,2.7293846E-1,-1.2983463E0,3.8256276E-1,-2.6255378E-1,1.2445238E0,-4.0188858E-1,1.2885767E0,1.949844E-1,-1.1946928E-1,-1.5184735E0,-9.8586273E-1,-1.6044569E0,-2.632119E0,-1.7156547E0,-1.4184922E0,-2.8189817E-1,-2.505609E0,-1.5922965E0,-1.0933207E0,-1.5418068E0,-1.2646242E0,-1.9670594E0,8.634679E-1,-1.0921798E0,-8.279604E-2,-1.1238072E0,-1.2910007E0,-3.8950723E-1,-1.2488621E0,-1.7365134E0],"split_indices":[374,375,364,374,375,374,375,388,364,374,375,375,388,374,375,375,381,374,317,375,375,388,374,375,348,374,381,267,374,364,375,0,0,0,0,0,0,0,0,0,0,0,0,0,0,0,0,0,0,0,0,0,0,0,0,0,0,0,0,0,0,0,0],"split_type":[0,0,0,0,0,0,0,0,0,0,0,0,0,0,0,0,0,0,0,0,0,0,0,0,0,0,0,0,0,0,0,0,0,0,0,0,0,0,0,0,0,0,0,0,0,0,0,0,0,0,0,0,0,0,0,0,0,0,0,0,0,0,0],"sum_hessian":[4.5959E4,3.4301E4,1.1658E4,2.062E4,1.3681E4,6.359E3,5.299E3,1.0302E4,1.0318E4,1.1703E4,1.978E3,3.171E3,3.188E3,2.755E3,2.544E3,1.0075E4,2.27E2,8.912E3,1.406E3,4.552E3,7.151E3,8.99E2,1.079E3,2.774E3,3.97E2,2.15E3,1.038E3,1.979E3,7.76E2,1.314E3,1.23E3,7.813E3,2.262E3,8.8E1,1.39E2,5.283E3,3.629E3,1.334E3,7.2E1,1.973E3,2.579E3,4.245E3,2.906E3,5.72E2,3.27E2,2.75E2,8.04E2,7.68E2,2.006E3,1.73E2,2.24E2,1.444E3,7.06E2,2.89E2,7.49E2,1.933E3,4.6E1,5.5E2,2.26E2,4.73E2,8.41E2,7.58E2,4.72E2],"tree_param":{"num_deleted":"0","num_feature":"390","num_nodes":"63","size_leaf_vector":"1"}},{"base_weights":[-6.9985236E-3,2.217352E0,-6.65717E0,5.2440214E0,-4.080879E0,2.0214398E-1,-1.0364214E1,6.296479E0,-6.0296154E0,6.1615467E0,-9.226975E0,6.107369E0,-8.560748E0,-6.8814645E0,-1.3182065E1,8.381242E0,3.5919092E0,-5.195983E-1,-1.0765497E1,1.1811906E1,-5.3342104E-1,-6.8237267E0,-1.9557693E1,8.126403E0,-5.2695107E0,-1.5261879E0,-1.1520683E1,-4.8315835E0,-1.435901E1,-1.164318E1,-1.7954964E1,1.134444E0,3.230945E-1,1.0475883E0,2.2128192E-1,8.7268345E-2,-1.2869571E0,1.1134081E0,-1.1097844E0,1.3041834E0,6.553855E-1,2.05258E-1,-8.5362035E-1,-3.5094747E-1,-1.6298002E0,-1.3820789E0,-2.2286038E0,1.0977129E0,5.26359E-1,-1.1591569E-1,-1.240923E0,1.2894307E-1,-5.65021E-1,-8.523049E-1,-1.3234059E0,-1.0132784E-1,-1.2736348E0,-7.666108E-1,-1.9027556E0,-9.222789E-1,-1.2909554E0,-1.6136944E0,-2.1922004E0],"categories":[],"categories_nodes":[],"categories_segments":[],"categories_sizes":[],"default_left":[0,0,0,0,0,0,0,0,0,0,0,0,0,0,0,0,0,0,0,0,0,0,0,0,0,0,0,0,0,0,0,0,0,0,0,0,0,0,0,0,0,0,0,0,0,0,0,0,0,0,0,0,0,0,0,0,0,0,0,0,0,0,0],"id":18,"left_children":[1,3,5,7,9,11,13,15,17,19,21,23,25,27,29,31,33,35,37,39,41,43,45,47,49,51,53,55,57,59,61,-1,-1,-1,-1,-1,-1,-1,-1,-1,-1,-1,-1,-1,-1,-1,-1,-1,-1,-1,-1,-1,-1,-1,-1,-1,-1,-1,-1,-1,-1,-1,-1],"loss_changes":[6.7991375E5,6.5655125E5,2.9305712E5,2.760567E5,5.8926325E5,2.091885E5,7.311644E4,1.1982375E5,5.1705797E4,1.4152373E5,1.8434256E5,5.556764E4,3.3729094E4,5.1072453E4,2.984425E4,1.8315212E5,8.781781E4,1.59502705E4,7.8890703E3,1.2833719E4,3.549185E4,1.8937016E5,2.1291E4,1.6534547E4,1.0532156E4,5.6709434E3,5.545297E3,7.9260555E4,2.2053156E4,9.250375E3,6.5066562E3,0E0,0E0,0E0,0E0,0E0,0E0,0E0,0E0,0E0,0E0,0E0,0E0,0E0,0E0,0E0,0E0,0E0,0E0,0E0,0E0,0E0,0E0,0E0,0E0,0E0,0E0,0E0,0E0,0E0,0E0,0E0,0E0],"parents":[2147483647,0,0,1,1,2,2,3,3,4,4,5,5,6,6,7,7,8,8,9,9,10,10,11,11,12,12,13,13,14,14,15,15,16,16,17,17,18,18,19,19,20,20,21,21,22,22,23,23,24,24,25,25,26,26,27,27,28,28,29,29,30,30],"right_children":[2,4,6,8,10,12,14,16,18,20,22,24,26,28,30,32,34,36,38,40,42,44,46,48,50,52,54,56,58,60,62,-1,-1,-1,-1,-1,-1,-1,-1,-1,-1,-1,-1,-1,-1,-1,-1,-1,-1,-1,-1,-1,-1,-1,-1,-1,-1,-1,-1,-1,-1,-1,-1],"split_conditions":[9.9366164E-1,3.831649E-1,3.3333334E-1,9.479167E-1,5.2083332E-2,3.7573227E-1,9.93827E-1,9.934136E-1,4.3680433E-2,9.388547E-1,3.125E-1,9.944057E-1,3.0208334E-1,3.3472466E-1,7.1875E-1,3.658099E-1,3.2291666E-1,9.93827E-1,9.501288E-4,9.3585235E-1,9.529145E-1,9.529145E-1,3.8979203E-1,9.938545E-1,9.951773E-1,3.831649E-1,3.852519E-1,7.1875E-1,6.5625E-1,4.9185666E-1,7.395833E-1,1.134444E0,3.230945E-1,1.0475883E0,2.2128192E-1,8.7268345E-2,-1.2869571E0,1.1134081E0,-1.1097844E0,1.3041834E0,6.553855E-1,2.05258E-1,-8.5362035E-1,-3.5094747E-1,-1.6298002E0,-1.3820789E0,-2.2286038E0,1.0977129E0,5.26359E-1,-1.1591569E-1,-1.240923E0,1.2894307E-1,-5.65021E-1,-8.523049E-1,-1.3234059E0,-1.0132784E-1,-1.2736348E0,-7.666108E-1,-1.9027556E0,-9.222789E-1,-1.2909554E0,-1.6136944E0,-2.1922004E0],"split_indices":[361,362,363,363,363,362,361,361,362,362,363,361,363,362,363,362,363,231,163,362,362,362,362,361,361,362,362,363,363,242,363,0,0,0,0,0,0,0,0,0,0,0,0,0,0,0,0,0,0,0,0,0,0,0,0,0,0,0,0,0,0,0,0],"split_type":[0,0,0,0,0,0,0,0,0,0,0,0,0,0,0,0,0,0,0,0,0,0,0,0,0,0,0,0,0,0,0,0,0,0,0,0,0,0,0,0,0,0,0,0,0,0,0,0,0,0,0,0,0,0,0,0,0,0,0,0,0,0,0],"sum_hessian":[4.5959E4,3.4439E4,1.152E4,2.3262E4,1.1177E4,4.041E3,7.479E3,2.1277E4,1.985E3,3.737E3,7.44E3,2.415E3,1.626E3,3.348E3,4.131E3,1.2012E4,9.265E3,9.19E2,1.066E3,2.027E3,1.71E3,6.038E3,1.402E3,2.052E3,3.63E2,4.83E2,1.143E3,2.63E3,7.18E2,3.128E3,1.003E3,7.623E3,4.389E3,1.544E3,7.721E3,8.26E2,9.3E1,1.5E1,1.051E3,1.64E3,3.87E2,1.292E3,4.18E2,4.475E3,1.563E3,4.55E2,9.47E2,1.025E3,1.027E3,2.32E2,1.31E2,2.86E2,1.97E2,4.2E2,7.23E2,1.775E3,8.55E2,2.97E2,4.21E2,1.08E3,2.048E3,6.93E2,3.1E2],"tree_param":{"num_deleted":"0","num_feature":"390","num_nodes":"63","size_leaf_vector":"1"}},{"base_weights":[-6.781725E-3,1.9182901E0,-6.3231387E0,2.7803097E0,-1.4065728E1,-1.8573813E0,-1.3112835E1,3.2683277E0,-1.1955099E1,-1.1729324E1,-1.7538576E1,1.8427444E0,-8.723316E0,-1.2147835E1,-2.003932E1,4.3800163E0,-2.647703E0,-7.314618E0,-1.716082E1,1.2208475E1,-1.1973342E1,-2.3556858E1,-1.4932128E1,9.742914E0,-1.631648E-2,-4.831698E0,-1.2827293E1,-9.121224E0,-1.3836176E1,-2.044976E1,1.6726553E1,6.672091E-1,4.218741E-2,3.334766E-1,-1.0598642E0,-5.94952E-1,-2.0038254E0,1.5293493E0,-1.7803296E0,-4.2403656E-1,2.8289237E0,8.032021E-1,-1.22743E0,-1.6499283E0,-2.6056201E0,-1.2461741E0,-1.7651719E0,1.0463986E0,-1.3681226E0,1.0927755E-1,-1.0089756E0,-1.6438895E-1,-8.754458E-1,-1.1709746E0,-1.6129255E0,-6.765006E-1,-1.59824E0,-1.6970377E0,-1.229123E0,1.0832556E0,-2.0736523E0,2.1924622E0,8.869426E-2],"categories":[],"categories_nodes":[],"categories_segments":[],"categories_sizes":[],"default_left":[0,0,0,0,0,0,0,0,0,0,0,0,0,0,0,0,0,0,0,0,0,0,0,0,0,0,0,0,0,0,0,0,0,0,0,0,0,0,0,0,0,0,0,0,0,0,0,0,0,0,0,0,0,0,0,0,0,0,0,0,0,0,0],"id":19,"left_children":[1,3,5,7,9,11,13,15,17,19,21,23,25,27,29,31,33,35,37,39,41,43,45,47,49,51,53,55,57,59,61,-1,-1,-1,-1,-1,-1,-1,-1,-1,-1,-1,-1,-1,-1,-1,-1,-1,-1,-1,-1,-1,-1,-1,-1,-1,-1,-1,-1,-1,-1,-1,-1],"loss_changes":[5.5890406E5,4.852615E5,3.2538397E5,2.4030175E5,1.4122969E4,1.6468272E5,2.7902125E4,2.1280756E5,2.5501922E4,6.464047E3,1.0573203E4,6.192926E4,3.601586E4,1.8765625E4,8.196016E3,2.470301E5,2.4350444E5,9.503875E3,1.0785453E4,3.2700542E3,6.5952812E3,2.9369844E3,2.8851406E3,1.3674055E4,3.817644E4,1.4487469E4,3.6029219E3,2.1408234E4,1.1110344E4,4.925578E3,2.4645068E2,0E0,0E0,0E0,0E0,0E0,0E0,0E0,0E0,0E0,0E0,0E0,0E0,0E0,0E0,0E0,0E0,0E0,0E0,0E0,0E0,0E0,0E0,0E0,0E0,0E0,0E0,0E0,0E0,0E0,0E0,0E0,0E0],"parents":[2147483647,0,0,1,1,2,2,3,3,4,4,5,5,6,6,7,7,8,8,9,9,10,10,11,11,12,12,13,13,14,14,15,15,16,16,17,17,18,18,19,19,20,20,21,21,22,22,23,23,24,24,25,25,26,26,27,27,28,28,29,29,30,30],"right_children":[2,4,6,8,10,12,14,16,18,20,22,24,26,28,30,32,34,36,38,40,42,44,46,48,50,52,54,56,58,60,62,-1,-1,-1,-1,-1,-1,-1,-1,-1,-1,-1,-1,-1,-1,-1,-1,-1,-1,-1,-1,-1,-1,-1,-1,-1,-1,-1,-1,-1,-1,-1,-1],"split_conditions":[9.9366164E-1,9.5247513E-1,8.535535E-1,9.5196253E-1,9.632762E-1,3.736819E-1,9.995566E-1,9.9366164E-1,9.6020067E-1,2.9108085E-2,1.1190405E-3,6.280774E-1,6.286052E-1,9.9379945E-1,9.935803E-1,3.7459725E-1,8.534901E-1,9.385345E-1,4.3159608E-2,5.9521997E-1,5.805613E-2,4.7605693E-1,3.799429E-1,9.120521E-1,9.9465376E-1,3.852519E-1,9.957836E-1,3.3684826E-1,9.934963E-1,3.80785E-2,6.5039486E-1,6.672091E-1,4.218741E-2,3.334766E-1,-1.0598642E0,-5.94952E-1,-2.0038254E0,1.5293493E0,-1.7803296E0,-4.2403656E-1,2.8289237E0,8.032021E-1,-1.22743E0,-1.6499283E0,-2.6056201E0,-1.2461741E0,-1.7651719E0,1.0463986E0,-1.3681226E0,1.0927755E-1,-1.0089756E0,-1.6438895E-1,-8.754458E-1,-1.1709746E0,-1.6129255E0,-6.765006E-1,-1.59824E0,-1.6970377E0,-1.229123E0,1.0832556E0,-2.0736523E0,2.1924622E0,8.869426E-2],"split_indices":[283,284,280,375,284,284,280,361,375,115,280,280,280,283,227,362,358,290,216,117,239,351,375,333,283,284,283,284,348,375,7,0,0,0,0,0,0,0,0,0,0,0,0,0,0,0,0,0,0,0,0,0,0,0,0,0,0,0,0,0,0,0,0],"split_type":[0,0,0,0,0,0,0,0,0,0,0,0,0,0,0,0,0,0,0,0,0,0,0,0,0,0,0,0,0,0,0,0,0,0,0,0,0,0,0,0,0,0,0,0,0,0,0,0,0,0,0,0,0,0,0,0,0,0,0,0,0,0,0],"sum_hessian":[4.5959E4,3.5223E4,1.0736E4,3.3422E4,1.801E3,6.478E3,4.258E3,3.2352E4,1.07E3,1.081E3,7.2E2,4.209E3,2.269E3,3.741E3,5.17E2,2.7236E4,5.116E3,5.68E2,5.02E2,1E1,1.071E3,2.14E2,5.06E2,8.02E2,3.407E3,1.167E3,1.102E3,1.344E3,2.397E3,5.12E2,5E0,1.7246E4,9.99E3,2.919E3,2.197E3,5.15E2,5.3E1,9E0,4.93E2,5E0,5E0,1.5E1,1.056E3,5.9E1,1.55E2,2.7E2,2.36E2,7.79E2,2.3E1,3.069E3,3.38E2,6.46E2,5.21E2,8.29E2,2.73E2,1.003E3,3.41E2,7.86E2,1.611E3,4E0,5.08E2,3E0,2E0],"tree_param":{"num_deleted":"0","num_feature":"390","num_nodes":"63","size_leaf_vector":"1"}},{"base_weights":[-6.6706557E-3,1.8836484E0,-5.5690446E0,3.1207912E0,-5.154925E0,5.8289636E-2,-8.556539E0,6.462957E0,1.1057757E0,7.265802E-1,-1.3180843E1,2.93552E0,-7.7106137E0,-7.0700116E0,-1.2952326E1,3.185131E0,8.677205E0,2.179165E0,-1.1018962E1,2.5593793E0,-1.1960224E1,-1.5082712E1,-5.9813194E0,3.9254706E0,-8.379423E0,-4.905533E0,-1.1051184E1,-9.089531E0,-1.5537082E0,-1.3689536E1,9.22349E0,6.1477035E-1,-1.350965E0,1.0677378E0,3.69452E-1,-4.2953148E-1,4.7968984E-1,-7.973258E-1,-1.7192291E0,3.2287478E-1,-8.6670107E-1,2.7615637E-1,-1.2527293E0,-1.2306441E0,-1.9140816E0,-5.8925163E-2,-1.0790058E0,4.4780466E-1,-1.2136112E0,1.7752246E0,-9.1783077E-1,-6.1720544E-1,3.6955785E-2,-1.1487411E0,-2.99254E-1,-6.843401E-1,-1.2029321E0,4.0263566E-1,-4.3111512E-1,8.4893666E-2,-1.4063982E0,1.859305E0,-1.7347364E-1],"categories":[],"categories_nodes":[],"categories_segments":[],"categories_sizes":[],"default_left":[0,0,0,0,0,0,0,0,0,0,0,0,0,0,0,0,0,0,0,0,0,0,0,0,0,0,0,0,0,0,0,0,0,0,0,0,0,0,0,0,0,0,0,0,0,0,0,0,0,0,0,0,0,0,0,0,0,0,0,0,0,0,0],"id":20,"left_children":[1,3,5,7,9,11,13,15,17,19,21,23,25,27,29,31,33,35,37,39,41,43,45,47,49,51,53,55,57,59,61,-1,-1,-1,-1,-1,-1,-1,-1,-1,-1,-1,-1,-1,-1,-1,-1,-1,-1,-1,-1,-1,-1,-1,-1,-1,-1,-1,-1,-1,-1,-1,-1],"loss_changes":[4.833012E5,2.98688E5,1.9609228E5,1.9640338E5,2.4215152E5,9.034776E4,4.9481188E4,7.948766E4,2.3686572E5,6.874035E4,2.9398281E4,3.3054402E4,1.0018883E4,6.33345E4,3.1592219E4,2.1896662E5,6.505578E4,2.8350562E5,2.7438422E4,1.9413846E4,3.2461562E3,1.8760562E4,1.1703494E4,2.4082926E4,5.0248516E3,4.048872E3,1.5644648E3,2.7250875E4,2.3546488E4,1.0275125E4,6.56661E3,0E0,0E0,0E0,0E0,0E0,0E0,0E0,0E0,0E0,0E0,0E0,0E0,0E0,0E0,0E0,0E0,0E0,0E0,0E0,0E0,0E0,0E0,0E0,0E0,0E0,0E0,0E0,0E0,0E0,0E0,0E0,0E0],"parents":[2147483647,0,0,1,1,2,2,3,3,4,4,5,5,6,6,7,7,8,8,9,9,10,10,11,11,12,12,13,13,14,14,15,15,16,16,17,17,18,18,19,19,20,20,21,21,22,22,23,23,24,24,25,25,26,26,27,27,28,28,29,29,30,30],"right_children":[2,4,6,8,10,12,14,16,18,20,22,24,26,28,30,32,34,36,38,40,42,44,46,48,50,52,54,56,58,60,62,-1,-1,-1,-1,-1,-1,-1,-1,-1,-1,-1,-1,-1,-1,-1,-1,-1,-1,-1,-1,-1,-1,-1,-1,-1,-1,-1,-1,-1,-1,-1,-1],"split_conditions":[9.9366164E-1,9.9366164E-1,3.3333334E-1,4.7557002E-1,8.534901E-1,9.944333E-1,7.1875E-1,9.920633E-1,9.9377185E-1,9.9451596E-1,4.7079265E-1,9.367311E-1,9.9523246E-1,6.1341786E-1,9.9464804E-1,5.8631923E-2,3.2291666E-1,6.041667E-1,7.7443E-1,9.2377126E-1,4.641694E-2,3.125E-1,9.479167E-1,9.2508143E-1,8.99165E-3,5.5802157E-3,1.3628408E-1,6.666667E-1,9.9294513E-1,5.5374593E-2,9.9305534E-1,6.1477035E-1,-1.350965E0,1.0677378E0,3.69452E-1,-4.2953148E-1,4.7968984E-1,-7.973258E-1,-1.7192291E0,3.2287478E-1,-8.6670107E-1,2.7615637E-1,-1.2527293E0,-1.2306441E0,-1.9140816E0,-5.8925163E-2,-1.0790058E0,4.4780466E-1,-1.2136112E0,1.7752246E0,-9.1783077E-1,-6.1720544E-1,3.6955785E-2,-1.1487411E0,-2.99254E-1,-6.843401E-1,-1.2029321E0,4.0263566E-1,-4.3111512E-1,8.4893666E-2,-1.4063982E0,1.859305E0,-1.7347364E-1],"split_indices":[374,218,376,359,215,374,376,361,361,218,373,258,374,373,373,359,363,363,359,265,164,376,376,359,68,373,373,376,140,268,101,0,0,0,0,0,0,0,0,0,0,0,0,0,0,0,0,0,0,0,0,0,0,0,0,0,0,0,0,0,0,0,0],"split_type":[0,0,0,0,0,0,0,0,0,0,0,0,0,0,0,0,0,0,0,0,0,0,0,0,0,0,0,0,0,0,0,0,0,0,0,0,0,0,0,0,0,0,0,0,0,0,0,0,0,0,0,0,0,0,0,0,0,0,0,0,0,0,0],"sum_hessian":[4.5959E4,3.4301E4,1.1658E4,2.9175E4,5.126E3,4.042E3,7.616E3,1.0971E4,1.8204E4,2.958E3,2.168E3,2.951E3,1.091E3,5.695E3,1.921E3,4.426E3,6.545E3,1.6725E4,1.479E3,2.586E3,3.72E2,1.713E3,4.55E2,2.715E3,2.36E2,5.96E2,4.95E2,4.167E3,1.528E3,1.86E3,6.1E1,3.76E3,6.66E2,4.668E3,1.877E3,4.814E3,1.1911E4,9.93E2,4.86E2,2.442E3,1.44E2,1.3E1,3.59E2,1.021E3,6.92E2,2.16E2,2.39E2,2.626E3,8.9E1,6E0,2.3E2,4.82E2,1.14E2,4.68E2,2.7E1,2.366E3,1.801E3,5.04E2,1.024E3,4.6E1,1.814E3,3.3E1,2.8E1],"tree_param":{"num_deleted":"0","num_feature":"390","num_nodes":"63","size_leaf_vector":"1"}},{"base_weights":[-6.396855E-3,1.860517E0,-5.4150424E0,3.5013797E0,-2.7214463E0,5.212993E0,-8.117457E0,3.906258E0,-1.3060813E1,8.772619E0,-5.2671466E0,7.2615347E0,-2.2439494E0,-6.9147325E0,-1.2265143E1,4.6931396E0,-3.0134816E0,-5.9940724E0,-1.6715012E1,9.638362E0,-3.4486413E0,-1.6534804E0,-8.657357E0,1.0313195E1,3.4943578E0,5.131486E0,-3.8625722E0,-4.0321693E0,-8.005371E0,-1.2552498E1,1.1813806E1,6.2609655E-1,1.407157E-1,6.9152445E-1,-7.6339567E-1,5.908736E-1,-1.0623198E0,1.7585844E0,-1.7137549E0,1.0295537E0,-1.7905262E-1,5.3338087E-1,-8.634864E-1,5.3135235E-2,-7.132313E-1,-4.340406E-1,-1.3276868E0,1.0851675E0,-7.770426E-2,4.5153695E-1,-8.061518E-1,-8.0305554E-2,1.1300877E0,9.7415274E-1,-4.4793072E-1,3.0163187E-1,-6.268489E-1,-6.8911445E-1,-1.3788158E0,-6.0510844E-1,-1.3217874E0,1.80268E0,-2.2811115E0],"categories":[],"categories_nodes":[],"categories_segments":[],"categories_sizes":[],"default_left":[0,0,0,0,0,0,0,0,0,0,0,0,0,0,0,0,0,0,0,0,0,0,0,0,0,0,0,0,0,0,0,0,0,0,0,0,0,0,0,0,0,0,0,0,0,0,0,0,0,0,0,0,0,0,0,0,0,0,0,0,0,0,0],"id":21,"left_children":[1,3,5,7,9,11,13,15,17,19,21,23,25,27,29,31,33,35,37,39,41,43,45,47,49,51,53,55,57,59,61,-1,-1,-1,-1,-1,-1,-1,-1,-1,-1,-1,-1,-1,-1,-1,-1,-1,-1,-1,-1,-1,-1,-1,-1,-1,-1,-1,-1,-1,-1,-1,-1],"loss_changes":[4.6412556E5,2.5689003E5,3.388399E5,1.6866753E5,2.6358925E5,3.6591047E4,4.6640438E4,1.3376053E5,1.516668E4,1.737304E4,9.024659E4,2.1404156E4,6.155226E3,2.2781656E4,1.4762094E4,1.13533375E5,1.1506967E5,1.1515529E4,6.007289E3,1.1564922E4,4.9982236E3,4.2839797E4,7.5626375E4,6.2900625E3,9.947231E3,3.4824038E3,3.5484268E3,3.1687107E4,3.377697E4,8.7554375E3,5.741479E3,0E0,0E0,0E0,0E0,0E0,0E0,0E0,0E0,0E0,0E0,0E0,0E0,0E0,0E0,0E0,0E0,0E0,0E0,0E0,0E0,0E0,0E0,0E0,0E0,0E0,0E0,0E0,0E0,0E0,0E0,0E0,0E0],"parents":[2147483647,0,0,1,1,2,2,3,3,4,4,5,5,6,6,7,7,8,8,9,9,10,10,11,11,12,12,13,13,14,14,15,15,16,16,17,17,18,18,19,19,20,20,21,21,22,22,23,23,24,24,25,25,26,26,27,27,28,28,29,29,30,30],"right_children":[2,4,6,8,10,12,14,16,18,20,22,24,26,28,30,32,34,36,38,40,42,44,46,48,50,52,54,56,58,60,62,-1,-1,-1,-1,-1,-1,-1,-1,-1,-1,-1,-1,-1,-1,-1,-1,-1,-1,-1,-1,-1,-1,-1,-1,-1,-1,-1,-1,-1,-1,-1,-1],"split_conditions":[9.9366164E-1,9.9355143E-1,2.541039E-1,9.3322474E-1,2.4762914E-1,9.9418527E-1,7.1631444E-1,9.9366164E-1,9.389251E-1,9.1939056E-1,8.535535E-1,2.416117E-1,2.3662928E-1,2.382332E-1,9.9362797E-1,3.7532952E-1,2.5547585E-1,1.3065419E-1,6.0270544E-2,9.9424034E-1,7.364608E-1,9.93827E-1,9.936892E-1,9.119771E-1,9.377563E-1,2.5328553E-1,3.664495E-2,6.9229287E-1,5.759159E-1,9.936892E-1,3.8664323E-1,6.2609655E-1,1.407157E-1,6.9152445E-1,-7.6339567E-1,5.908736E-1,-1.0623198E0,1.7585844E0,-1.7137549E0,1.0295537E0,-1.7905262E-1,5.3338087E-1,-8.634864E-1,5.3135235E-2,-7.132313E-1,-4.340406E-1,-1.3276868E0,1.0851675E0,-7.770426E-2,4.5153695E-1,-8.061518E-1,-8.0305554E-2,1.1300877E0,9.7415274E-1,-4.4793072E-1,3.0163187E-1,-6.268489E-1,-6.8911445E-1,-1.3788158E0,-6.0510844E-1,-1.3217874E0,1.80268E0,-2.2811115E0],"split_indices":[387,283,382,346,278,387,382,231,346,382,280,382,382,377,331,232,226,211,252,283,157,283,283,291,271,252,346,382,382,387,180,0,0,0,0,0,0,0,0,0,0,0,0,0,0,0,0,0,0,0,0,0,0,0,0,0,0,0,0,0,0,0,0],"split_type":[0,0,0,0,0,0,0,0,0,0,0,0,0,0,0,0,0,0,0,0,0,0,0,0,0,0,0,0,0,0,0,0,0,0,0,0,0,0,0,0,0,0,0,0,0,0,0,0,0,0,0,0,0,0,0,0,0,0,0,0,0,0,0],"sum_hessian":[4.5959E4,3.4165E4,1.1794E4,2.5158E4,9.007E3,2.39E3,9.404E3,2.4559E4,5.99E2,1.632E3,7.375E3,1.876E3,5.14E2,7.294E3,2.11E3,2.2053E4,2.506E3,2.06E2,3.93E2,1.525E3,1.07E2,3.572E3,3.803E3,1.034E3,8.42E2,9.1E1,4.23E2,2.006E3,5.288E3,2.086E3,2.4E1,1.4927E4,7.126E3,7.95E2,1.711E3,5.7E1,1.49E2,4E0,3.89E2,1.443E3,8.2E1,3.9E1,6.8E1,2.553E3,1.019E3,1.968E3,1.835E3,9.87E2,4.7E1,7.75E2,6.7E1,4.6E1,4.5E1,1.7E1,4.06E2,4.82E2,1.524E3,4.437E3,8.51E2,1.96E2,1.89E3,2.1E1,3E0],"tree_param":{"num_deleted":"0","num_feature":"390","num_nodes":"63","size_leaf_vector":"1"}},{"base_weights":[-5.9146546E-3,1.6743872E0,-4.87401E0,-1.97617E0,3.5343845E0,5.2710385E0,-7.4213066E0,4.187694E-1,-1.9687828E1,4.480429E0,-5.9275184E0,8.238096E0,1.3752657E0,-6.071322E0,-1.0897796E1,6.8160787E0,-2.5081692E0,-2.247997E1,-1.3766266E1,1.8533499E0,6.262636E0,-3.0175998E0,-1.0502168E1,9.506994E0,1.8178531E0,7.2018137E0,-2.674616E0,-7.4305835E0,-1.5431969E0,-9.742521E0,-1.3833523E1,1.0171995E0,3.7915394E-1,-7.795841E-1,3.817011E-1,-1.2826899E0,-2.3880146E0,5.70103E-1,-1.5164465E0,6.0496205E-1,-9.2919487E-1,1.0516545E0,2.771714E-1,2.8495413E-1,-5.791587E-1,-1.5950394E-1,-1.171814E0,9.906189E-1,-9.511402E-1,6.727674E-1,-2.1871844E-1,-9.115764E-1,7.933948E-1,1.9700603E0,-3.2549098E-1,-6.167087E-1,-1.3525304E0,2.5583452E-1,-5.547279E-1,-5.5827373E-1,-1.0988897E0,-1.4083289E0,1.7360172E0],"categories":[],"categories_nodes":[],"categories_segments":[],"categories_sizes":[],"default_left":[0,0,0,0,0,0,0,0,0,0,0,0,0,0,0,0,0,0,0,0,0,0,0,0,0,0,0,0,0,0,0,0,0,0,0,0,0,0,0,0,0,0,0,0,0,0,0,0,0,0,0,0,0,0,0,0,0,0,0,0,0,0,0],"id":22,"left_children":[1,3,5,7,9,11,13,15,17,19,21,23,25,27,29,31,33,35,37,39,41,43,45,47,49,51,53,55,57,59,61,-1,-1,-1,-1,-1,-1,-1,-1,-1,-1,-1,-1,-1,-1,-1,-1,-1,-1,-1,-1,-1,-1,-1,-1,-1,-1,-1,-1,-1,-1,-1,-1],"loss_changes":[3.7598697E5,2.320106E5,3.0487228E5,4.8932684E5,2.026356E5,2.7252656E4,4.4016375E4,1.9026397E5,2.2045562E4,9.626278E4,2.7215602E4,1.0802242E4,2.427488E4,4.1727547E4,8.562875E3,3.2200625E4,2.3315106E5,1.19100625E4,1.2266398E4,3.8923275E5,1.8188484E5,2.0552898E4,8.491164E3,8.593664E3,4.4648594E3,5.101996E3,7.7551094E3,3.9955594E4,2.5860896E4,9.603031E3,5.9693594E3,0E0,0E0,0E0,0E0,0E0,0E0,0E0,0E0,0E0,0E0,0E0,0E0,0E0,0E0,0E0,0E0,0E0,0E0,0E0,0E0,0E0,0E0,0E0,0E0,0E0,0E0,0E0,0E0,0E0,0E0,0E0,0E0],"parents":[2147483647,0,0,1,1,2,2,3,3,4,4,5,5,6,6,7,7,8,8,9,9,10,10,11,11,12,12,13,13,14,14,15,15,16,16,17,17,18,18,19,19,20,20,21,21,22,22,23,23,24,24,25,25,26,26,27,27,28,28,29,29,30,30],"right_children":[2,4,6,8,10,12,14,16,18,20,22,24,26,28,30,32,34,36,38,40,42,44,46,48,50,52,54,56,58,60,62,-1,-1,-1,-1,-1,-1,-1,-1,-1,-1,-1,-1,-1,-1,-1,-1,-1,-1,-1,-1,-1,-1,-1,-1,-1,-1,-1,-1,-1,-1,-1,-1],"split_conditions":[9.9366164E-1,9.929176E-1,4.7394136E-1,4.97557E-1,9.242671E-1,4.6254072E-1,7.7117264E-1,4.5602605E-2,6.788138E-1,6.510494E-1,9.3811077E-1,6.512605E-1,6.280774E-1,7.2882736E-1,9.995566E-1,3.5016287E-2,9.9214596E-1,1.3074595E-1,7.000433E-1,4.82899E-1,9.934136E-1,9.929727E-1,9.8293424E-1,9.1042346E-1,1.3806024E-1,8.899899E-3,2.52443E-2,6.913681E-1,8.534901E-1,9.9377185E-1,9.934848E-1,1.0171995E0,3.7915394E-1,-7.795841E-1,3.817011E-1,-1.2826899E0,-2.3880146E0,5.70103E-1,-1.5164465E0,6.0496205E-1,-9.2919487E-1,1.0516545E0,2.771714E-1,2.8495413E-1,-5.791587E-1,-1.5950394E-1,-1.171814E0,9.906189E-1,-9.511402E-1,6.727674E-1,-2.1871844E-1,-9.115764E-1,7.933948E-1,1.9700603E0,-3.2549098E-1,-6.167087E-1,-1.3525304E0,2.5583452E-1,-5.547279E-1,-5.5827373E-1,-1.0988897E0,-1.4083289E0,1.7360172E0],"split_indices":[387,387,385,385,385,385,385,385,343,384,385,384,384,385,384,385,387,380,343,385,387,231,380,242,162,237,242,385,384,387,331,0,0,0,0,0,0,0,0,0,0,0,0,0,0,0,0,0,0,0,0,0,0,0,0,0,0,0,0,0,0,0,0],"split_type":[0,0,0,0,0,0,0,0,0,0,0,0,0,0,0,0,0,0,0,0,0,0,0,0,0,0,0,0,0,0,0,0,0,0,0,0,0,0,0,0,0,0,0,0,0,0,0,0,0,0,0,0,0,0,0,0,0,0,0,0,0,0,0],"sum_hessian":[4.5959E4,3.4165E4,1.1794E4,1.153E4,2.2635E4,2.366E3,9.428E3,1.0157E4,1.373E3,2.0579E4,2.056E3,1.341E3,1.025E3,6.795E3,2.633E3,3.189E3,6.968E3,9.3E2,4.43E2,8.321E3,1.2258E4,1.259E3,7.97E2,1.118E3,2.23E2,4.21E2,6.04E2,5.224E3,1.571E3,1.895E3,7.38E2,1.509E3,1.68E3,3.796E3,3.172E3,1.2E2,8.1E2,2.9E1,4.14E2,6.046E3,2.275E3,5.523E3,6.735E3,4.03E2,8.56E2,9.7E1,7E2,1.096E3,2.2E1,1.01E2,1.22E2,1.7E1,4.04E2,1.4E1,5.9E2,4.33E3,8.94E2,7.75E2,7.96E2,4.4E2,1.455E3,7.33E2,5E0],"tree_param":{"num_deleted":"0","num_feature":"390","num_nodes":"63","size_leaf_vector":"1"}},{"base_weights":[-5.5143763E-3,1.3469731E0,-4.6628547E0,1.7625335E0,-1.0752159E1,5.458951E0,-7.0024414E0,3.4093268E0,-2.1670632E0,-1.3359158E1,-6.520323E0,6.8201356E0,-2.9585335E0,-5.780649E0,-1.2035779E1,5.691641E0,5.943101E-1,1.6034998E0,-6.9207697E0,7.6744795E0,-1.3735836E1,6.4026194E0,-7.672544E0,1.0375832E1,4.8642387E0,1.564974E0,-6.600006E0,-4.812171E0,-9.185356E0,-1.2388972E1,9.139649E0,8.501035E-1,3.7657595E-1,1.8488137E-1,-1.0676047E0,3.7118724E-1,-5.9784645E-1,-5.281839E-1,-1.4332597E0,-5.1656455E-1,2.5182235E0,-2.2991064E0,-1.2901821E0,-2.070643E-1,2.1185167E0,2.7226622E0,-8.0145305E-1,1.1119392E0,-7.237403E-1,5.7156175E-1,-7.585228E-1,9.214541E-1,-3.1795478E-1,1.735691E0,-7.607824E-1,-3.975937E-1,-1.0705876E0,-1.1220607E0,-7.395488E-1,-1.4282984E0,-8.955435E-1,2.3412073E0,-3.172425E-1],"categories":[],"categories_nodes":[],"categories_segments":[],"categories_sizes":[],"default_left":[0,0,0,0,0,0,0,0,0,0,0,0,0,0,0,0,0,0,0,0,0,0,0,0,0,0,0,0,0,0,0,0,0,0,0,0,0,0,0,0,0,0,0,0,0,0,0,0,0,0,0,0,0,0,0,0,0,0,0,0,0,0,0],"id":23,"left_children":[1,3,5,7,9,11,13,15,17,19,21,23,25,27,29,31,33,35,37,39,41,43,45,47,49,51,53,55,57,59,61,-1,-1,-1,-1,-1,-1,-1,-1,-1,-1,-1,-1,-1,-1,-1,-1,-1,-1,-1,-1,-1,-1,-1,-1,-1,-1,-1,-1,-1,-1,-1,-1],"loss_changes":[2.8954122E5,1.7900353E5,2.4503195E5,2.2285672E5,1.2754375E4,2.230975E4,5.143425E4,1.5584966E5,1.8231702E5,5.941836E3,6.821926E3,1.1432133E4,4.5081807E3,2.2125938E4,1.2403844E4,7.234675E4,1.5360502E5,9.063791E4,5.437964E4,3.2526711E3,4.8789688E3,4.8694995E3,5.014926E3,7.8593164E3,1.1503596E4,4.444872E3,3.6803345E3,2.5793766E4,5.1768906E3,1.0129281E4,5.0211934E3,0E0,0E0,0E0,0E0,0E0,0E0,0E0,0E0,0E0,0E0,0E0,0E0,0E0,0E0,0E0,0E0,0E0,0E0,0E0,0E0,0E0,0E0,0E0,0E0,0E0,0E0,0E0,0E0,0E0,0E0,0E0,0E0],"parents":[2147483647,0,0,1,1,2,2,3,3,4,4,5,5,6,6,7,7,8,8,9,9,10,10,11,11,12,12,13,13,14,14,15,15,16,16,17,17,18,18,19,19,20,20,21,21,22,22,23,23,24,24,25,25,26,26,27,27,28,28,29,29,30,30],"right_children":[2,4,6,8,10,12,14,16,18,20,22,24,26,28,30,32,34,36,38,40,42,44,46,48,50,52,54,56,58,60,62,-1,-1,-1,-1,-1,-1,-1,-1,-1,-1,-1,-1,-1,-1,-1,-1,-1,-1,-1,-1,-1,-1,-1,-1,-1,-1,-1,-1,-1,-1,-1,-1],"split_conditions":[9.9366164E-1,9.529145E-1,2.4799018E-1,9.9355143E-1,4.707174E-1,9.9424034E-1,7.123911E-1,3.70826E-1,8.535535E-1,5.885043E-2,6.188925E-2,1.2808515E-1,9.936065E-1,6.604276E-1,9.951046E-1,9.9333096E-1,6.2773955E-1,3.7459725E-1,3.369215E-1,6.1252445E-1,1.047207E-3,3.7803894E-1,5.239975E-2,9.3193465E-1,9.992821E-1,5.950962E-1,3.765407E-2,9.950395E-1,4.7020927E-1,4.7045487E-1,9.9305534E-1,8.501035E-1,3.7657595E-1,1.8488137E-1,-1.0676047E0,3.7118724E-1,-5.9784645E-1,-5.281839E-1,-1.4332597E0,-5.1656455E-1,2.5182235E0,-2.2991064E0,-1.2901821E0,-2.070643E-1,2.1185167E0,2.7226622E0,-8.0145305E-1,1.1119392E0,-7.237403E-1,5.7156175E-1,-7.585228E-1,9.214541E-1,-3.1795478E-1,1.735691E0,-7.607824E-1,-3.975937E-1,-1.0705876E0,-1.1220607E0,-7.395488E-1,-1.4282984E0,-8.955435E-1,2.3412073E0,-3.172425E-1],"split_indices":[244,362,239,361,383,244,239,362,358,304,268,237,205,237,243,361,358,362,362,292,361,76,161,50,358,260,316,244,243,383,23,0,0,0,0,0,0,0,0,0,0,0,0,0,0,0,0,0,0,0,0,0,0,0,0,0,0,0,0,0,0,0,0],"split_type":[0,0,0,0,0,0,0,0,0,0,0,0,0,0,0,0,0,0,0,0,0,0,0,0,0,0,0,0,0,0,0,0,0,0,0,0,0,0,0,0,0,0,0,0,0,0,0,0,0,0,0,0,0,0,0,0,0,0,0,0,0,0,0],"sum_hessian":[4.5959E4,3.5615E4,1.0344E4,3.4434E4,1.181E3,1.941E3,8.403E3,2.4267E4,1.0167E4,7.28E2,4.53E2,1.672E3,2.69E2,6.765E3,1.638E3,1.3399E4,1.0868E4,5.669E3,4.498E3,1.2E1,7.16E2,3.6E1,4.17E2,5.9E2,1.082E3,1.19E2,1.5E2,5.271E3,1.494E3,1.612E3,2.6E1,5.446E3,7.953E3,9.781E3,1.087E3,4.437E3,1.232E3,3.686E3,8.12E2,7E0,5E0,5.6E1,6.6E2,2.3E1,1.3E1,3E0,4.14E2,5.67E2,2.3E1,1.014E3,6.8E1,4.6E1,7.3E1,5E0,1.45E2,4.619E3,6.52E2,6.94E2,8E2,1.035E3,5.77E2,1.2E1,1.4E1],"tree_param":{"num_deleted":"0","num_feature":"390","num_nodes":"63","size_leaf_vector":"1"}},{"base_weights":[-5.147983E-3,3.3964937E0,-1.8170058E0,1.18761465E-1,5.917403E0,1.3037626E-1,-6.1885457E0,5.6776385E0,-5.836718E0,9.7122E0,4.053094E0,4.345539E0,-4.674196E0,-2.5242047E0,-1.1720469E1,9.635023E0,3.5458927E0,-2.890002E0,-1.109237E1,1.1641536E1,7.6816607E0,4.617732E0,-9.517067E-1,6.185871E0,-2.7418618E0,2.122271E0,-6.262445E0,-2.3633522E1,-2.1787703E0,-1.9010798E1,-1.0308725E1,1.0450228E0,1.1257036E-1,6.323351E-1,9.586079E-2,8.864069E-3,-5.386743E-1,-1.9671961E0,-9.998204E-1,1.1929662E0,-7.183101E-1,8.120742E-1,-8.618885E-1,4.9609253E-1,-3.6257327E-1,-2.0236896E-1,7.119257E-1,9.250758E-1,3.1761253E-1,1.7127116E-1,-4.5391226E-1,8.986729E-1,-1.18448295E-1,1.7403448E-1,-7.519836E-1,-2.4942331E0,7.9142374E-1,-1.7610882E-1,-1.0250074E0,-1.2658789E0,-2.1177578E0,-8.622014E-1,-1.3832798E0],"categories":[],"categories_nodes":[],"categories_segments":[],"categories_sizes":[],"default_left":[0,0,0,0,0,0,0,0,0,0,0,0,0,0,0,0,0,0,0,0,0,0,0,0,0,0,0,0,0,0,0,0,0,0,0,0,0,0,0,0,0,0,0,0,0,0,0,0,0,0,0,0,0,0,0,0,0,0,0,0,0,0,0],"id":24,"left_children":[1,3,5,7,9,11,13,15,17,19,21,23,25,27,29,31,33,35,37,39,41,43,45,47,49,51,53,55,57,59,61,-1,-1,-1,-1,-1,-1,-1,-1,-1,-1,-1,-1,-1,-1,-1,-1,-1,-1,-1,-1,-1,-1,-1,-1,-1,-1,-1,-1,-1,-1,-1,-1],"loss_changes":[2.8325522E5,1.3190519E5,2.55368E5,2.2998428E5,6.3679E4,4.201864E5,1.8721175E5,3.0153508E4,5.1755727E4,1.13565E4,1.7154703E4,1.4421758E5,1.047072E5,4.0255145E4,3.740625E4,8.585141E3,1.6729348E4,1.6050225E4,1.0799766E4,8.372016E3,1.0464516E4,1.5432977E4,5.2670874E3,8.080081E4,1.8273777E4,4.1764168E4,7.916319E4,4.0424883E3,1.8319367E4,7.582797E3,1.8011562E4,0E0,0E0,0E0,0E0,0E0,0E0,0E0,0E0,0E0,0E0,0E0,0E0,0E0,0E0,0E0,0E0,0E0,0E0,0E0,0E0,0E0,0E0,0E0,0E0,0E0,0E0,0E0,0E0,0E0,0E0,0E0,0E0],"parents":[2147483647,0,0,1,1,2,2,3,3,4,4,5,5,6,6,7,7,8,8,9,9,10,10,11,11,12,12,13,13,14,14,15,15,16,16,17,17,18,18,19,19,20,20,21,21,22,22,23,23,24,24,25,25,26,26,27,27,28,28,29,29,30,30],"right_children":[2,4,6,8,10,12,14,16,18,20,22,24,26,28,30,32,34,36,38,40,42,44,46,48,50,52,54,56,58,60,62,-1,-1,-1,-1,-1,-1,-1,-1,-1,-1,-1,-1,-1,-1,-1,-1,-1,-1,-1,-1,-1,-1,-1,-1,-1,-1,-1,-1,-1,-1,-1,-1],"split_conditions":[2.5323737E-1,9.921735E-1,8.331294E-1,6.489193E-2,2.3699032E-1,9.9355143E-1,2.7039906E-1,5.0377894E-2,8.0826074E-2,2.9166666E-1,9.939923E-1,9.202571E-1,8.534901E-1,9.920633E-1,9.925318E-1,1.6891179E-3,1.7912751E-3,5.2083332E-2,7.81217E-4,9.401728E-1,9.4211334E-1,9.210098E-1,9.270833E-1,9.933861E-1,9.93138E-1,9.930278E-1,5.5300146E-1,9.9307907E-1,9.324104E-1,2.3820701E-1,2.8488904E-1,1.0450228E0,1.1257036E-1,6.323351E-1,9.586079E-2,8.864069E-3,-5.386743E-1,-1.9671961E0,-9.998204E-1,1.1929662E0,-7.183101E-1,8.120742E-1,-8.618885E-1,4.9609253E-1,-3.6257327E-1,-2.0236896E-1,7.119257E-1,9.250758E-1,3.1761253E-1,1.7127116E-1,-4.5391226E-1,8.986729E-1,-1.18448295E-1,1.7403448E-1,-7.519836E-1,-2.4942331E0,7.9142374E-1,-1.7610882E-1,-1.0250074E0,-1.2658789E0,-2.1177578E0,-8.622014E-1,-1.3832798E0],"split_indices":[356,361,351,356,356,361,356,356,356,363,361,356,358,361,361,358,361,363,358,245,323,307,51,361,153,75,356,370,333,377,356,0,0,0,0,0,0,0,0,0,0,0,0,0,0,0,0,0,0,0,0,0,0,0,0,0,0,0,0,0,0,0,0],"split_type":[0,0,0,0,0,0,0,0,0,0,0,0,0,0,0,0,0,0,0,0,0,0,0,0,0,0,0,0,0,0,0,0,0,0,0,0,0,0,0,0,0,0,0,0,0,0,0,0,0,0,0,0,0,0,0,0,0,0,0,0,0,0,0],"sum_hessian":[4.5959E4,1.597E4,2.9989E4,6.945E3,9.025E3,2.0746E4,9.243E3,3.593E3,3.352E3,2.97E3,6.055E3,1.1052E4,9.694E3,5.562E3,3.681E3,1.255E3,2.338E3,2.15E3,1.202E3,1.518E3,1.452E3,5.443E3,6.12E2,8.775E3,2.277E3,1.835E3,7.859E3,8.8E1,5.474E3,5.94E2,3.087E3,1.144E3,1.11E2,1.125E3,1.213E3,9.79E2,1.171E3,1.33E2,1.069E3,1.496E3,2.2E1,1.415E3,3.7E1,5.227E3,2.16E2,5.42E2,7E1,4.345E3,4.43E3,6.53E2,1.624E3,5.97E2,1.238E3,1.066E3,6.793E3,8.5E1,3E0,5.207E3,2.67E2,1.54E2,4.4E2,2.092E3,9.95E2],"tree_param":{"num_deleted":"0","num_feature":"390","num_nodes":"63","size_leaf_vector":"1"}},{"base_weights":[-4.8274505E-3,1.936259E0,-3.64235E0,5.565664E0,-2.3856404E0,-6.412676E-1,-1.1970037E1,6.642409E0,-1.2748904E0,2.988837E0,-5.355856E0,1.6073505E0,-1.0633791E1,-2.242412E1,-1.0996601E1,8.445795E0,4.828177E0,3.2255907E0,-3.2687433E0,7.5930963E0,5.8774734E-1,-8.402966E0,-3.1246774E0,2.6901116E0,-9.883876E0,-2.3636147E1,-9.825775E0,-2.4871403E1,-1.656735E1,-9.101087E0,-1.47452E1,1.1153584E0,6.8011487E-1,5.402839E-1,-1.7498747E0,-7.403486E-2,8.037616E-1,1.5435177E0,-3.7470636E-1,9.68939E-1,4.1898432E-1,5.5114836E-1,-1.2327675E-1,-3.7419567E-1,-9.622056E-1,-3.1707E-2,-9.471175E-1,7.923663E-1,1.4390351E-1,-1.2223037E0,-5.267984E-1,-2.5915132E0,-1.485347E0,-6.950614E-1,-1.1829273E0,9.2230123E-1,-2.522387E0,-7.188892E-1,-1.8336601E0,-6.790134E-1,-1.2141593E0,-1.6802896E0,-8.286333E-1],"categories":[],"categories_nodes":[],"categories_segments":[],"categories_sizes":[],"default_left":[0,0,0,0,0,0,0,0,0,0,0,0,0,0,0,0,0,0,0,0,0,0,0,0,0,0,0,0,0,0,0,0,0,0,0,0,0,0,0,0,0,0,0,0,0,0,0,0,0,0,0,0,0,0,0,0,0,0,0,0,0,0,0],"id":25,"left_children":[1,3,5,7,9,11,13,15,17,19,21,23,25,27,29,31,33,35,37,39,41,43,45,47,49,51,53,55,57,59,61,-1,-1,-1,-1,-1,-1,-1,-1,-1,-1,-1,-1,-1,-1,-1,-1,-1,-1,-1,-1,-1,-1,-1,-1,-1,-1,-1,-1,-1,-1,-1,-1],"loss_changes":[3.24536E5,4.7010512E5,3.9958944E5,1.2004666E5,2.183865E5,2.6432466E5,4.2526375E4,4.587975E4,1.9886828E4,5.373063E4,5.9761344E4,1.1938785E5,2.2136828E4,4.319172E3,2.7182562E4,3.1163031E4,9.006891E4,1.3037096E4,1.3691668E4,1.1713359E4,2.8751457E4,2.09795E4,9.059516E4,5.7343375E4,8.679266E3,1.7093359E3,1.1463875E4,3.3969375E3,1.4381387E3,1.7856516E4,1.6874094E4,0E0,0E0,0E0,0E0,0E0,0E0,0E0,0E0,0E0,0E0,0E0,0E0,0E0,0E0,0E0,0E0,0E0,0E0,0E0,0E0,0E0,0E0,0E0,0E0,0E0,0E0,0E0,0E0,0E0,0E0,0E0,0E0],"parents":[2147483647,0,0,1,1,2,2,3,3,4,4,5,5,6,6,7,7,8,8,9,9,10,10,11,11,12,12,13,13,14,14,15,15,16,16,17,17,18,18,19,19,20,20,21,21,22,22,23,23,24,24,25,25,26,26,27,27,28,28,29,29,30,30],"right_children":[2,4,6,8,10,12,14,16,18,20,22,24,26,28,30,32,34,36,38,40,42,44,46,48,50,52,54,56,58,60,62,-1,-1,-1,-1,-1,-1,-1,-1,-1,-1,-1,-1,-1,-1,-1,-1,-1,-1,-1,-1,-1,-1,-1,-1,-1,-1,-1,-1,-1,-1,-1,-1],"split_conditions":[3.7565905E-1,9.9355143E-1,4.9185666E-1,9.144951E-1,6.710098E-1,9.521456E-1,9.9214596E-1,3.2399678E-1,9.93138E-1,4.6254072E-1,6.1339253E-1,3.2291666E-1,1.0196489E-3,9.936892E-1,3.889133E-1,9.9333096E-1,6.864821E-1,2.799675E-1,1.1190405E-3,9.938545E-1,3.0208334E-1,6.824104E-1,9.324104E-1,3.664495E-2,9.937443E-1,